-0.19577459	-0.07518513	-0.15767139	-0.18689577	-0.07207015	0.15832378	-0.043117598	0.075150765	0.28553796	-0.08535758	0.10534737	-0.0751685	-0.07503404	0.031246534	0.23629518	-0.053590313
0.18154463	0.26354828	0.32418957	0.3057337	0.22305739	-0.403702	0.3566639	-0.11801777	-0.10523362	0.18544963	-0.36133024	0.17015745	0.3422027	0.30484447	-0.27156398	0.09697247
0.008382999	0.11403167	0.10542181	0.08311063	0.09988844	-0.14150132	0.122383356	-0.061768666	-0.047923617	0.111359335	-0.07152599	0.10203479	0.13986304	0.12763746	-0.07530602	0.102670595
0.019717239	-0.00095813046	-0.009155162	-0.045520738	-0.040833756	0.07990902	-0.0020584539	0.016149772	0.025886388	-0.08116726	-0.028858356	0.01576646	-0.013237237	-0.008332665	0.004092976	0.0029505524
-0.02771523	-0.049636178	-0.032726776	-0.07454777	-0.04610546	0.074271105	-0.01846465	-0.006687135	-0.013035659	-0.046306305	0.0060941298	0.021271875	0.0029413737	-0.013213114	0.06789489	0.044623934
-0.126253	-0.09466651	-0.06027237	-0.10474902	-0.05989922	0.17592238	-0.10233003	0.12517731	0.09270862	-0.085543685	0.18266405	-0.11428214	-0.133075	-0.10402361	0.2614257	-0.094974555
0.09718391	0.07165082	0.18128166	0.116158776	0.04518228	-0.13374041	0.21442224	-0.038217355	-0.099151894	0.17315441	-0.19608459	0.013824327	0.10746545	0.15466578	-0.13108322	-0.0059960675
-0.018022161	0.045727745	-0.026378263	-0.060641702	-0.05304742	0.10468716	-0.008461845	0.072891034	0.024966894	-0.008203803	-0.00017174183	0.014047959	-0.02759094	-0.01812306	-0.015424381	-0.08505888
0.017784752	0.061913323	0.088607885	0.07777133	0.0037815343	-0.07652798	0.18070011	-0.059282955	-0.071054526	0.11789705	-0.19955663	0.08710471	0.037551038	0.25431597	-0.1168174	-0.033424444
0.27196676	0.25235963	0.47136152	0.29797828	0.1973185	-0.3879008	0.49974275	-0.28897613	-0.2274065	0.25412047	-0.4054824	0.23575412	0.4041596	0.49627286	-0.47612393	-0.011471408
0.22109397	0.036326244	0.38538235	0.16715692	0.09207099	-0.27471352	0.39437515	-0.080157734	-0.15675965	0.13056011	-0.3015997	0.21336892	0.14708306	0.3998818	-0.2586564	-0.0025276225
0.20090902	0.16983254	0.2596333	0.1519755	0.107010886	-0.26087692	0.27961305	-0.19519281	-0.20640333	0.094520316	-0.27846202	0.1922058	0.18465734	0.29805884	-0.1981935	0.050153412
-0.029746275	-0.030121723	0.076820776	-0.031487018	-0.11156206	0.09187506	0.05455355	-0.06510871	0.07034738	-0.088782735	0.025128985	0.13049749	-0.11170782	0.08166837	-0.07678095	-0.03762518
0.12089149	0.114804566	0.48998696	0.11319856	0.10782116	-0.40587407	0.5225401	-0.15812674	-0.07397482	0.07432526	-0.39994752	0.14894305	0.25259137	0.6475538	-0.31104717	0.094584815
0.14474395	0.06716198	0.39855888	0.24257039	0.17642742	-0.47227368	0.48505446	-0.29178852	-0.13371916	0.027217323	-0.41389996	0.29065004	0.3883655	0.478232	-0.29184517	0.16993688
0.1893538	0.16427796	0.22710903	0.115064435	0.056847375	-0.18061535	0.2969378	-0.19763885	-0.09621183	0.08842805	-0.20383081	0.34440663	0.16826916	0.26882276	-0.28789863	0.10342644
0.07501677	0.03946192	-0.003836276	-0.008471013	0.10501264	-0.06043962	0.012391809	-0.025002455	-0.01758749	0.05578666	0.0076786084	0.0582862	0.05145843	0.05029461	0.03776623	0.14000736
0.13754004	0.058812443	0.1377156	0.060286477	0.13022295	-0.05382381	0.11774722	-0.08802705	-0.045647882	0.044916227	-0.06430148	0.10316865	0.169456	0.20192732	-0.16194938	0.05036941
0.22297478	0.18661833	0.36054945	0.26233846	0.12389438	-0.28946415	0.39228985	-0.18046062	-0.11427983	0.11483759	-0.42761442	0.17452832	0.2720463	0.4740416	-0.32729775	0.034408227
0.2001705	0.13507427	0.30996922	0.23378602	0.056259535	-0.22757639	0.2997397	-0.24868798	-0.12747358	0.116482995	-0.31987956	0.27930975	0.16411741	0.31206673	-0.3059172	0.0076550823
-0.038384575	-0.06182936	-0.00022404382	-0.045161795	-0.040564112	0.0511166	-0.06783915	-0.012679986	-0.0018668519	-0.017747747	0.034450296	0.026400818	-0.09298037	0.031500727	-0.0052997633	-0.04777758
0.09609167	0.10411216	0.1743822	0.041153885	0.12714583	-0.14331377	0.15607764	-0.12875949	-0.035303563	0.08765952	-0.14225864	0.11037725	0.16294582	0.14739355	-0.08913577	0.09213395
0.12436013	0.17352067	0.4011838	0.18741652	0.13104361	-0.28193122	0.35248196	-0.103117906	-0.14726117	0.15376873	-0.3386577	0.22167966	0.25353682	0.3701019	-0.2612389	0.06593315
-0.014752882	0.13434789	0.57545173	0.17270413	0.10660713	-0.33973593	0.6206493	-0.05421826	0.033860676	0.09225372	-0.40722892	-0.036488082	0.262722	0.19886214	-0.2907108	0.01865219
-0.021674173	0.043830104	0.057440277	-0.08630155	-0.088718	-0.028167626	-0.002621355	0.045320995	0.0020044018	0.023341578	-0.016674664	-0.034837313	-0.02758349	0.056890547	0.08094848	-0.033807255
0.097777694	0.080255754	0.10324452	0.09112926	0.088216595	-0.12005186	0.13999514	-0.12821008	-0.14704002	-0.0041721654	-0.10652102	0.14412305	0.12554927	0.15231563	-0.09797869	0.14498962
0.06887926	0.005565198	0.004618265	0.04510167	-0.04105786	0.013503661	0.012097365	-0.05698911	-0.03526831	0.008583985	-0.029062279	0.08703262	0.038919464	0.07684463	-0.08001364	-0.11184722
-0.028486565	-0.051371817	-0.042626176	-0.060132623	0.007445958	0.03777779	-0.059248794	0.014304085	0.02243837	-0.079598114	0.0540421	-0.034392975	-0.02138133	-0.04883972	-0.008497929	-0.024505334
0.2638188	0.5287029	0.44171605	0.4437286	0.38021374	-0.6077701	0.66727936	-0.3054056	-0.1700746	0.5141873	-0.5499321	0.3029107	0.5132472	0.33855873	-0.4876455	0.31470242
0.1724208	0.079957224	0.38733116	0.22168761	0.13327739	-0.3146863	0.39593425	-0.14412317	-0.16266935	0.08939896	-0.33446035	0.29804552	0.29874125	0.41737866	-0.26801178	0.13243754
-0.026381578	0.013694451	0.08692598	0.08493183	-0.084186696	-0.025140103	0.08172083	-0.0005831184	-0.012217844	0.077561185	-0.07126613	0.06457065	0.043194633	0.10293468	-0.12532412	-0.021167804
0.024000868	0.21872844	0.1660706	0.15066288	0.020756189	-0.20835519	0.41334128	-0.08203437	0.053701784	0.13405009	-0.27574724	0.14673099	0.20208874	0.21301709	-0.22228257	0.045216702
0.05944034	0.0719307	0.12726337	0.03742193	0.06445757	-0.105382666	0.15739559	-0.034025613	-0.049643833	0.003569986	-0.14922416	0.15903576	0.028638016	0.28709272	-0.073781274	0.018109111
0.062195215	0.023914648	0.009937603	0.07250674	-0.004915371	0.038792446	0.044811334	0.057145145	-0.009571272	-0.027836915	-0.021389568	0.046593092	0.008711261	0.011341485	-0.012220235	-0.05442472
0.029282283	0.12083325	0.40211716	0.15334354	0.085706554	-0.24184392	0.40281022	-0.15184487	-0.01913277	0.038130876	-0.32902566	0.18811792	0.11363837	0.3652131	-0.2500216	0.0055088857
0.15867455	0.1914023	0.24443404	0.2216164	0.10354856	-0.13859054	0.23921308	-0.16603509	-0.123266086	0.13413489	-0.2171276	0.12583724	0.15246592	0.20279975	-0.21170434	0.12335314
-0.2874193	-0.07206986	-0.17383315	-0.24316554	-0.09707489	0.15676291	-0.13148144	0.11239209	0.30048487	-0.13336909	0.191913	-0.077984996	-0.18399076	-0.18623683	0.26353997	0.04554625
0.17069596	-0.018952172	0.18038687	0.15772815	-0.034218438	-0.07757666	0.117181756	-0.07425375	-0.020456484	0.069366015	-0.084803574	0.17252272	0.08775899	0.2233529	-0.20748766	-0.056558263
-0.05271614	0.15578955	0.02670213	0.05731576	0.030796997	-0.18995348	0.1706816	-0.053924143	0.03045497	0.077113844	-0.33751217	0.061924983	0.3244682	0.18831833	-0.19354425	0.15351433
0.12471743	0.05623659	0.24834073	0.069086865	0.07733152	-0.23526488	0.3056172	-0.04463561	-0.068140335	0.04619041	-0.26581803	0.19686495	0.1631596	0.43614203	-0.13243581	0.042245284
0.23085208	0.21706237	0.488613	0.28841245	0.11297365	-0.37055543	0.5048347	-0.25192404	-0.233041	0.10418998	-0.4591544	0.41752926	0.2736662	0.5425002	-0.3550241	0.056407295
0.08200295	0.07327338	0.10318988	0.08155608	0.13270581	-0.18208703	0.14470445	-0.18718289	-0.10591109	0.0632122	-0.14171837	0.087586716	0.15191323	0.13826925	-0.15384038	0.0784029
0.11569463	0.103463314	0.34660923	0.1453027	0.1905621	-0.3148361	0.3277781	-0.22985946	-0.087832324	0.056908093	-0.30522794	0.2589114	0.21411017	0.38121322	-0.24835831	0.17628334
0.23220961	0.066264205	0.2445061	0.22371708	0.043695334	-0.20606016	0.19030543	-0.035401892	-0.12647206	0.21603213	-0.17563258	0.19009656	0.22417809	0.28430602	-0.290154	-0.042393845
0.1295068	0.08745037	0.11058452	0.06527606	0.08349312	-0.08112075	0.15779439	-0.17704053	-0.08996276	0.023737289	-0.16379678	0.16779225	0.1500864	0.13186917	-0.1536427	0.03296606
0.10010283	0.0005006379	0.3956281	0.10997232	-0.026933834	-0.09947262	0.33104557	-0.034627058	-0.06058096	0.017990882	-0.2222238	0.23087458	0.115229584	0.48269817	-0.23223999	-0.013231274
0.2985991	0.22105695	0.41629314	0.26444072	0.26980588	-0.43362936	0.48363295	-0.35964227	-0.19780236	0.11287861	-0.43452638	0.2954855	0.39898348	0.44339725	-0.38098088	0.120298095
0.013968493	0.023724595	0.505046	0.066707894	0.067422606	-0.089199506	0.3315372	-0.048594065	-0.10627928	0.07446826	-0.005705917	0.024607217	0.03221601	0.1838704	-0.0831882	0.092579536
0.06814774	0.23513778	0.35486916	0.09779376	0.21871458	-0.26672313	0.33786783	-0.024968999	-0.1233677	0.20591682	-0.20820902	0.027952073	0.21914431	0.36901844	-0.13676293	0.06363257
0.047937986	0.010443469	0.23926388	0.02914271	0.0879442	-0.09032655	0.1940792	-0.13262798	-0.16487892	0.018007297	-0.14114392	0.043641124	0.05396513	0.21026337	-0.07746273	0.032587457
0.038612586	0.056311727	0.04683043	0.058540642	0.06501809	-0.03760687	0.107426584	-0.119731106	-0.06487868	0.008574344	-0.13833727	0.12136307	0.04987492	0.08476636	-0.09433191	0.090018325
-0.015195154	0.107504904	0.05006651	-0.029378805	0.096982256	-0.12784079	0.20418438	-0.10464569	-0.054992113	-0.016368061	-0.16886161	0.1128264	0.09749865	0.16195498	-0.0027922357	0.043509077
0.15107569	0.10735429	0.22510494	0.22137438	0.055483207	-0.28333488	0.35529786	-0.06589606	-0.033165436	0.14944455	-0.31528223	0.08015595	0.21837169	0.42306995	-0.25459623	0.03805181
0.15140808	0.047819447	0.19761169	0.083465464	0.12662148	-0.17852372	0.2558346	-0.13720198	-0.06372534	0.0599774	-0.16492994	0.1334239	0.17471766	0.2329218	-0.16086754	0.075458966
-0.19840951	-0.07196672	-0.14840384	-0.12978327	-0.09871462	0.0441428	-0.052536104	0.015229125	0.15736845	-0.12600464	0.07302454	0.026637599	-0.07037985	-0.06267776	0.0931429	-0.014957949
0.07121241	0.06405777	0.09992753	0.016926108	0.052255362	-0.039755832	0.10483077	-0.070006475	-0.040028453	0.005854067	-0.17481658	0.067848645	0.14146776	0.18502606	-0.04417274	0.010437558
0.10964807	0.0947936	0.2602303	0.120855294	0.051353075	-0.16842549	0.21670352	-0.14939344	-0.081637755	0.1692469	-0.21752101	0.21506776	0.11472513	0.2665555	-0.24315146	0.014159527
0.15357171	0.03692971	0.3451384	0.05916774	0.089800425	-0.18021606	0.34491295	-0.1008493	-0.12962587	0.09404885	-0.20348656	0.078213714	0.16208138	0.2110523	-0.11497146	0.046522446
-0.24799272	-0.021287447	-0.15538114	-0.21921699	0.07999893	0.13206346	-0.08561247	0.014208672	0.22612825	-0.17550515	0.16162401	0.045747694	-0.09954746	-0.10869429	0.21605355	0.2700003
0.13916533	0.12202439	0.21230407	0.13007104	0.10143584	-0.163872	0.32953578	-0.106506705	-0.20267932	0.104329035	-0.20000151	0.11466593	0.18554188	0.224903	-0.17201722	0.026125066
0.13767551	0.08132676	0.1576001	0.17615463	0.15206616	-0.36088422	0.23904635	-0.25701052	-0.11359706	0.034798715	-0.27580795	0.29369378	0.19975355	0.27576151	-0.2611848	0.114083596
-0.027255546	0.10143386	0.25718066	0.08236321	0.03916387	-0.2029157	0.42743605	-0.02763142	0.035714515	0.09263487	-0.3144991	-0.01780119	0.1918382	0.0923374	-0.27177247	0.07699768
0.14648944	0.027811516	0.47479546	0.13616419	-0.022264078	-0.07990864	0.40411568	-0.09355883	-0.12764624	0.028014746	-0.29105923	0.32522088	0.0074532623	0.6179941	-0.27735263	0.035079274
0.10493424	0.23852894	0.10809186	0.15125622	0.17024817	-0.31603664	0.2089864	-0.1749891	-0.09665361	0.063026845	-0.3146129	0.10444952	0.20058106	0.18791309	-0.20291042	0.16836585
0.0039537298	0.057772484	0.1724346	0.07279358	0.041630667	-0.26483122	0.15954247	-0.071905985	-0.046706516	0.012859924	-0.19095604	0.10333295	0.10728939	0.22209555	-0.08483382	-0.01330193
0.2157225	0.13748793	0.24359776	0.14738993	0.33056232	-0.38009834	0.40034527	-0.33505505	-0.20065174	0.031194676	-0.3615619	0.37692854	0.3917824	0.56592464	-0.33611304	0.22071087
0.09813233	0.046864115	0.321216	0.019687252	0.06873347	-0.109960794	0.32503	-0.10786564	-0.056130473	-0.04089055	-0.12364647	0.053649273	0.074294075	0.15765154	-0.19779281	0.04006938
0.29905865	0.28271356	0.54621834	0.23045386	0.25396177	-0.4632724	0.6577481	-0.21193478	-0.19195722	0.18327427	-0.3282352	0.18226674	0.3820843	0.64243543	-0.4316329	0.15576674
-0.0374777	0.13284343	0.17808369	0.094989	-0.03417988	-0.091434345	0.21872976	0.0056116963	0.097777575	0.08426029	-0.124576315	0.0069886055	0.00038830988	0.087530404	-0.09204698	0.001728962
0.032773748	0.13415976	0.30997166	0.11970041	0.034559384	-0.108275265	0.30165198	-0.084039494	-0.101132736	0.12557891	-0.15542327	0.09283478	0.105975576	0.30201763	-0.11075185	0.0046740505
0.07015601	0.06376137	0.2565696	0.07601701	0.17014106	-0.3399771	0.33658153	-0.13650398	0.019543538	0.03934111	-0.23903048	0.17444211	0.17752792	0.31587422	-0.08123588	0.13366884
0.22631492	0.12175432	0.20205168	0.14143002	0.13997684	-0.18761943	0.33955157	-0.19957574	-0.1748957	0.029960914	-0.3400856	0.31939754	0.16742766	0.30157962	-0.28871456	0.009346242
0.07277325	0.03316557	0.05161711	0.051263493	0.06748557	-0.108419634	0.13835122	-0.10724166	-0.083623014	-0.00908419	-0.09678582	0.10235226	0.041330714	0.09283126	-0.036883462	0.067595474
-0.02998317	0.08096728	0.14969301	0.059320148	-0.025568089	-0.17221688	0.28665075	-0.053503286	0.044162076	0.07348933	-0.16478108	0.08711709	0.13823012	0.1365653	-0.15924326	-0.06039292
-0.0930305	0.079797864	0.07641544	-0.052298546	0.04769896	-0.14080258	0.06645832	-0.083975784	0.0062418403	0.0018632464	-0.11006136	-0.0054469677	0.11567285	0.08003998	-0.0070010875	0.050753076
0.054119367	-0.021382589	0.01625206	0.035756443	-0.008225255	-0.026602512	0.111699566	0.034389894	-0.02414657	-0.04999572	-0.010344753	0.015893308	-0.0054649357	0.11593684	-0.066734925	-2.8532078e-05
0.12690441	0.13501696	0.36648706	0.21938615	-0.017914584	-0.20127761	0.42791688	-0.12985308	-0.14163353	0.1872349	-0.34359336	0.29638276	0.182633	0.4414284	-0.25077835	0.054778825
-0.05620968	-0.026224513	-0.0015090483	-0.058659382	-0.044036854	0.02126884	-0.065950185	0.01666254	0.100404985	-0.03865762	0.010239775	0.025760885	-0.076579295	0.015738096	0.056423046	-0.12952887
-0.23684244	-0.06471166	-0.13012515	-0.1881055	-0.074742064	0.12541044	-0.088939674	0.12063833	0.20801337	-0.11448502	0.12663671	-0.07041657	-0.16933247	-0.14437753	0.16059442	0.04438164
0.086586386	0.0044732667	0.33796704	0.02529932	0.042825326	-0.080693744	0.26359025	-0.13095531	-0.06475851	-0.015131947	-0.16823977	0.11163023	0.08498626	0.105906405	-0.14722973	0.076007046
0.14257585	0.14439522	0.33709162	0.2144983	0.07846127	-0.33704153	0.37099966	-0.17006847	-0.20112903	0.10122204	-0.3449304	0.32803702	0.2605494	0.47433206	-0.3542034	0.077147685
-0.1306914	0.037256	0.0025977488	-0.11170379	0.046856403	0.051799458	-0.041220155	0.0372377	0.042891394	-0.012612387	0.02601733	-0.022436874	-0.06034391	-0.059475474	0.13545549	0.06513831
0.075798854	0.15944345	0.20832616	0.07816514	0.1672455	-0.28696236	0.23957074	-0.104322	-0.025744524	0.07154105	-0.1989516	0.026784047	0.17124245	0.24379486	0.016217375	0.09849095
0.19083597	0.14427134	0.23909295	0.13782972	0.1930926	-0.23774834	0.2601721	-0.24940461	-0.16120312	0.08291729	-0.30539688	0.19430982	0.22379358	0.26844162	-0.19918144	0.19555192
0.02069499	0.26793972	0.37768045	0.07763431	0.1875655	-0.3405685	0.46820813	-0.119043924	-0.14448561	0.14476395	-0.3670056	0.09885786	0.2923031	0.38896927	-0.19669102	0.088696055
0.13450822	0.14365971	0.16211215	0.1725521	0.12623674	-0.20813568	0.22545162	-0.15606683	-0.122448064	0.08210219	-0.19487719	0.14804108	0.20100555	0.22759041	-0.16912955	0.14777902
0.2333412	-0.1444264	0.5675179	0.22479077	-0.26531172	0.10897027	0.29942316	0.12286004	-0.14916144	0.11291804	-0.023918295	0.5007689	-0.18783663	0.71389246	-0.37746254	-0.23950848
0.044898655	0.235145	0.076427594	0.12663135	0.19231401	-0.21289569	0.1676067	-0.12438071	-0.01086264	0.14521953	-0.22112514	0.15691207	0.23628235	0.10646285	-0.1357709	0.20571807
0.07714068	0.09810002	0.33006254	0.08017402	0.067238376	-0.20428675	0.372288	-0.12603028	-0.1611613	0.07286676	-0.28906137	0.30079675	0.16326573	0.3722168	-0.14111336	0.04759054
0.1187881	0.19080606	0.28490257	0.10221475	0.08506156	-0.20400552	0.36398965	-0.10828448	-0.16275541	0.11444831	-0.24593124	0.07810405	0.17346872	0.34477505	-0.088289626	0.12453471
0.09128123	0.062323112	0.20406483	0.14699112	0.013014898	-0.13904272	0.2698483	-0.024391696	-0.07977196	0.065231405	-0.16511872	0.12539458	0.079675175	0.3715902	-0.20076583	-0.007850552
0.12411386	-0.018686416	0.27245784	0.10069556	0.010263032	-0.11539307	0.25625613	-0.09500122	-0.09293295	0.021472527	-0.15314898	0.17906949	0.050559353	0.4156486	-0.21459974	-0.07509378
0.038417112	-0.011688393	0.30588856	0.013208313	-0.017361356	-0.08716965	0.21079181	-0.109166384	-0.05749232	0.026743663	-0.11274183	0.12167292	-0.00014694147	0.11619557	-0.16080087	-0.089559264
0.09010414	0.25990903	0.46462595	0.3290195	0.03763182	-0.2533453	0.47634643	-0.0140316645	-0.081446186	0.32451203	-0.36608103	0.16660264	0.15748486	0.2556898	-0.41502172	-0.025335873
0.059552133	0.00919954	0.13283584	0.097484246	-0.0462961	-0.07202356	0.11985914	-0.04614559	-0.04262258	0.08251204	-0.06416036	0.10539277	0.011254022	0.13910018	-0.087993264	-0.055519745
-0.04935744	0.021851448	-0.039145842	-0.0777833	0.10747316	0.027167218	-0.009870793	-0.034022316	0.060617883	-0.07906432	0.060265146	-0.004535311	0.0297575	-0.027496152	0.10104333	0.089244984
0.09997781	0.07983139	0.30895346	0.13682753	0.09325581	-0.20847048	0.29680714	-0.15102014	-0.071014576	0.09108848	-0.22659898	0.1843187	0.16723679	0.35182083	-0.1720038	0.025248364
0.12686054	0.07527905	0.37008426	0.13443437	-0.022810653	-0.19925186	0.47397426	-0.12837371	-0.19932091	0.12670116	-0.2797519	0.29015166	0.09679566	0.4811027	-0.19694188	0.07093236
0.06862798	0.0706426	0.19128245	0.17242488	0.049979635	-0.20054176	0.17423306	-0.14110537	-0.063309215	0.09001063	-0.2397041	0.15370658	0.1327526	0.1781314	-0.17417942	0.0018722072
-0.049896006	-0.027681926	0.018380998	-0.14361425	-0.024775356	0.06883573	-0.07722271	-0.0003936508	0.04808556	-0.01990162	0.08745446	0.038558185	-0.006150291	-0.05662532	0.14507933	0.10850721
0.20221415	0.14315483	0.22382377	0.25104356	0.21710593	-0.33826998	0.31185305	-0.27791375	-0.1608086	0.05224138	-0.3976711	0.1979693	0.28388524	0.34873313	-0.30669403	0.20639431
0.17913336	0.018037599	0.24448127	0.11157811	0.06235251	-0.154647	0.29326892	-0.06081033	-0.10719267	0.06734676	-0.3233224	0.16006684	0.2853667	0.4166531	-0.22118798	0.008320108
0.0045695757	0.040487424	0.22693317	0.043740805	-0.02621059	-0.05321113	0.113886565	0.028844269	-0.023600519	0.036977105	0.014466011	0.047451206	0.035630703	0.19404845	-0.114520036	0.015934767
0.049126975	0.053092297	0.24520242	0.13210776	0.04552747	-0.26828533	0.33391953	-0.07456541	-0.007410772	0.05596146	-0.27447638	0.20144174	0.10132277	0.3634726	-0.17622352	0.08060874
0.21574649	0.031957712	0.3387835	0.096729785	0.101957366	-0.26525754	0.27921468	-0.04245832	-0.1082325	0.057992876	-0.20813634	0.0392054	0.35090634	0.4454574	-0.090167396	0.06566542
0.15647104	0.08568445	0.24103884	0.1423521	0.1856572	-0.37241462	0.37662375	-0.28595728	-0.32594556	0.13027689	-0.35720477	0.13999139	0.20300727	0.41470298	-0.20929599	0.16239747
0.29955438	0.025335863	0.602126	0.3601545	-0.20964885	-0.09483677	0.47061408	-0.0013470147	-0.14773586	0.20252788	-0.31318498	0.47445008	-0.10572175	0.64943814	-0.49519005	-0.24737442
0.105959274	0.115015626	0.10312358	0.08304969	0.13075605	-0.21747528	0.25417504	-0.10046975	-0.041146763	0.05200682	-0.2527732	0.10411521	0.3061132	0.28319046	-0.18062946	0.1570128
0.1502715	-0.014834801	0.37998292	0.15315266	0.19999412	-0.2758812	0.2787763	-0.09169684	-0.09195307	0.16048396	-0.1364259	0.10632494	0.35013768	0.48925698	-0.12063071	0.06384098
0.16658057	-0.027210759	0.29864988	0.09855639	-0.05557089	0.06347259	0.17466742	-0.009272979	-0.08598941	0.09877277	-0.052096486	0.20092191	-0.057837714	0.35470477	-0.20169798	-0.06382185
0.19926785	0.12455129	0.3625617	0.13810048	0.3021587	-0.43373805	0.37565562	-0.33570343	-0.1951314	0.09251614	-0.4627144	0.3265233	0.4422883	0.45238355	-0.34503973	0.19361544
0.12803827	0.0052856067	0.29272833	0.07822262	0.058151256	-0.0426334	0.21974458	-0.09413252	-0.16695961	0.09473945	-0.13862461	0.17381921	0.039518293	0.38729548	-0.18349963	-0.029687148
-0.005858793	0.062605485	0.28400677	0.040131655	0.11153986	-0.1961762	0.2888561	0.009096388	-0.02548046	0.11588188	-0.22407216	0.025452686	0.124947175	0.10323754	-0.18036063	0.0708775
0.16989297	0.23685081	0.31408268	0.17213424	0.3528991	-0.3659118	0.37716198	-0.2818362	-0.13709313	0.10294051	-0.29969427	0.16676432	0.40622744	0.3332736	-0.23036973	0.24161813
0.071282946	0.08251695	0.11465029	0.08360656	0.06872742	-0.08036972	0.12855394	-0.0013550597	-0.064473584	0.14180748	-0.0395433	0.018523982	0.051655818	0.18015687	-0.03564556	0.009600806
-0.18409131	0.1051746	-0.08842161	-0.05063746	0.06932641	-0.13650927	-0.037782695	-0.04649177	0.14591528	-0.0054144515	-0.051950168	-0.032301396	0.09210454	-0.10199717	-0.025473127	0.19079174
0.06342293	0.028774546	0.29978183	0.022072809	0.15257642	-0.29894295	0.24252401	-0.1117971	-0.028944546	-0.032759644	-0.21779895	0.15096408	0.1586862	0.29638585	-0.043711957	0.12215093
0.023868697	0.021109037	-0.01755306	0.014876761	-0.01535213	0.028890105	-0.012061664	-0.011438591	-0.015249567	-0.0024240632	0.038579106	-0.031225398	-0.0036971169	0.040677894	0.0103814555	-0.020795368
0.15111071	0.050398327	0.24229914	0.16556993	-0.04913958	-0.03761343	0.1774186	-0.08373942	-0.08803735	0.195656	-0.12024812	0.26359263	0.015088607	0.22453447	-0.17721531	-0.028658856
0.12412594	0.28038746	0.258466	0.2580654	0.16314967	-0.26875958	0.38693136	-0.20024352	-0.15004927	0.21044743	-0.30169812	0.22311817	0.3206304	0.22218293	-0.29662013	0.11257069
0.18497561	0.27017248	0.19542772	0.12956448	0.22816665	-0.29104555	0.2983045	-0.2604486	-0.14884776	0.18488657	-0.23165625	0.14055048	0.29032752	0.31874502	-0.104886696	0.14621118
0.044250507	0.10151834	0.090624735	0.13904315	0.07558201	-0.0857649	0.13717128	-0.08484218	-0.047842104	0.024404755	-0.14940044	0.121060774	0.12521207	0.16977212	-0.122560985	0.0019078341
0.22825126	0.0032046218	0.46675274	0.1484208	-0.13684496	-0.030927483	0.5300498	-0.07481389	-0.19241339	0.17263353	-0.16575834	0.3823154	-0.118727036	0.6109424	-0.27260378	-0.18257162
0.035589974	0.035897814	0.16878355	0.0014540533	0.03922216	-0.06739501	0.1895402	-0.08998142	-0.032245055	0.020932516	-0.17164405	0.1500802	0.03916357	0.19401152	-0.07674221	0.019677358
0.12772836	0.10481324	0.15641174	0.048874665	0.016819442	-0.05094743	0.11077465	-0.028394753	-0.052286744	0.056995373	-0.07461436	0.15693662	0.08688082	0.08506038	-0.09487671	-0.053796515
0.00946549	0.0058170226	0.16468015	-0.041926745	-0.055316668	-0.050227173	0.224985	-0.014709508	0.06009074	0.031503115	-0.08913498	0.008977605	0.024170952	0.23793484	-0.07518804	-0.04339353
0.122315265	0.025573969	0.1509831	0.106349036	-0.1142416	-0.039967064	0.15068492	0.021531023	-0.1027429	0.024322761	-0.09682239	0.19505455	-0.13171959	0.30059266	-0.2396005	-0.18075249
0.08161514	0.12630446	0.2731804	0.067170806	0.071558274	-0.15544793	0.24047655	-0.033997875	0.015574568	0.074118026	-0.2133999	0.08265923	0.060596578	0.3089995	-0.16206412	-0.0047635664
0.053596407	0.1382463	0.30569375	0.1073677	0.09130705	-0.18401569	0.28040212	-0.15496649	-0.030711036	0.10828378	-0.2051561	0.19480968	0.22291091	0.3102536	-0.21984874	0.08873206
0.0150450645	0.10436456	0.07658347	-0.020244148	0.004694908	-0.085623376	0.13416927	-0.0028987515	-0.04325916	-0.037879128	-0.0831663	0.08192515	0.008435689	0.1038718	0.0070148786	0.026635937
0.1809938	0.079310626	0.446697	0.17614229	0.10375012	-0.22483133	0.5100775	-0.077425174	-0.17994688	0.14706773	-0.33980802	0.19699265	0.1511097	0.5517106	-0.2779091	-0.008071481
0.3222674	-0.047672745	0.5631699	0.39261585	-0.26446176	0.07900804	0.5786446	0.1527485	-0.0606246	0.32960898	-0.18848813	0.32198176	-0.12460999	0.7260077	-0.49395648	-0.26023087
0.054527953	0.034520674	0.14587066	0.060568444	-0.074072815	0.06429976	0.02307163	0.037059017	0.030675674	-0.0032250006	-0.073072106	0.13403021	-0.04389828	0.12836637	-0.12094133	-0.08493541
0.03389592	0.038909547	0.18090941	0.01503904	0.21825872	-0.24204676	0.26382685	-0.1403715	-0.14242026	0.07054821	-0.18870912	0.07979974	0.20631205	0.16512135	-0.11198747	0.24099667
0.11831093	0.34786877	0.2613336	0.26265925	0.16201387	-0.33766118	0.34955794	-0.15204772	-0.13075657	0.28673685	-0.31226125	0.140404	0.3635421	0.24560487	-0.33698025	0.11563837
0.11813691	0.20294492	0.44284776	0.08995598	0.13108146	-0.32271537	0.42648837	-0.20099008	-0.18361872	0.08973914	-0.39555624	0.20287675	0.26661542	0.40144902	-0.16687764	0.10024408
0.13637242	0.07617923	0.3647464	0.07191855	0.15987764	-0.21690004	0.43293926	-0.14760384	-0.06456734	0.028458776	-0.26227784	0.07930786	0.24248466	0.37514523	-0.097104855	0.10806955
-0.025398497	0.07613675	0.07566918	-0.043369457	0.05036101	-0.15201674	0.11824813	-0.048351835	0.087472945	0.020012842	-0.09430852	0.07341039	0.04712937	0.08985808	0.0010917399	0.035376474
0.07028123	0.03182312	0.23726842	0.07913001	0.020027116	-0.14046535	0.15704422	-0.078924656	-0.022667248	0.03364672	-0.1418983	0.114150725	0.08462726	0.22498389	-0.10404214	-0.0433783
0.21570411	0.15830788	0.32196644	0.23043284	0.051121864	-0.17405063	0.3234995	-0.122923896	-0.11616588	0.1573864	-0.24286908	0.26863644	0.17847313	0.39525613	-0.2860489	-0.003955451
0.11665968	-0.022817928	0.0810127	0.058259074	0.005527869	-0.098151006	0.05534735	-0.10510243	-0.06800565	-0.0141603425	-0.06527686	0.083494194	0.074232034	0.050811123	-0.032955583	0.095215164
0.1490231	0.12459505	0.29526797	0.16403838	0.3308737	-0.3736111	0.29857215	-0.33369768	-0.11521627	0.021950407	-0.35089236	0.31795645	0.31784162	0.3481877	-0.23709516	0.35980648
-0.07053855	0.04513449	0.15989907	-0.004433953	-0.022954397	-0.056564987	0.19837466	0.047889967	0.055150397	0.014851821	-0.085509926	-0.015926545	0.06972979	0.18376893	-0.033256046	0.0648131
0.035008743	0.031694762	0.15278064	0.120269604	0.06115362	-0.3354094	0.2931271	-0.06394576	-0.02974397	0.0030800798	-0.19511299	0.14455052	0.10537868	0.3080992	-0.1337722	0.009194102
0.013410437	-0.008094702	0.024122218	-0.0027498372	-0.010490695	0.024366884	-0.02832942	0.009876409	0.055814568	-0.0070213857	-0.008339464	-0.06130907	-0.040742207	-0.022967419	0.049640354	0.015387391
0.07178107	0.04181976	0.10866168	0.08064097	0.13123551	-0.14045087	0.19283916	-0.12842049	-0.052365635	-0.0053140074	-0.16926187	0.17775604	0.06722956	0.1595929	-0.08064034	0.04887831
0.02719595	0.06697504	0.35803825	0.13891938	0.015975522	-0.1524853	0.37118074	-0.110480696	-0.13626727	0.07777825	-0.22143866	0.14300494	0.07416725	0.3075245	-0.14121217	0.0033996815
0.093419604	0.027656812	0.13746934	0.09378312	0.11492602	-0.12558456	0.11393779	-0.0709295	-0.08402817	0.08319899	-0.016207503	0.00249027	0.15443131	0.15038767	0.0037276938	0.04315996
0.15590747	0.023480618	0.17130314	0.10531391	0.029854354	-0.08600805	0.1488339	-0.044280063	-0.09073779	0.028722871	-0.15393949	0.12866671	0.029612182	0.17243183	-0.11520659	-0.07188559
0.018103056	0.0049357903	0.084487826	0.034288503	0.061626926	-0.09714493	0.11024014	-0.034703437	-0.07007162	0.042612024	-0.09953699	0.032053128	0.01978583	0.16655497	-0.021623816	-0.0067677796
0.09740822	0.12148301	0.14923042	0.03272838	0.19292974	-0.15436265	0.13201377	-0.15294412	-0.09490604	-0.0049934494	-0.18724433	0.13851155	0.12035449	0.18116312	-0.15089726	0.16709387
0.13010639	0.20393816	0.32865185	0.2456446	0.16671246	-0.5262573	0.45114154	-0.124664634	-0.058831263	0.2967556	-0.5019454	0.061840385	0.39576334	0.35036296	-0.33281174	0.15387064
0.11333681	0.12698402	0.22675253	0.10696814	0.042305052	-0.08089901	0.27150893	-0.08321605	-0.09170939	0.047160417	-0.1433287	0.18518145	0.05461439	0.2664483	-0.14699244	-0.0023050578
0.2754393	0.103819236	0.44194007	0.24856094	0.05530372	-0.15601626	0.2949371	-0.12322519	-0.18385106	0.19482926	-0.18272835	0.24957678	0.20939994	0.52972555	-0.36387223	-0.05132725
-0.006652368	0.060292866	0.09871672	-0.023622429	0.034455817	-0.035918325	0.11880793	-0.07038347	-0.01007669	-0.049238227	-0.08975412	0.06211058	0.06090619	0.101357	-0.032308985	0.106617674
0.121838376	0.1346181	0.30018708	0.20234728	0.14657438	-0.2705711	0.30875894	-0.17695364	-0.106035486	0.06447195	-0.29007387	0.19771984	0.3131516	0.40182313	-0.26120138	0.100369394
-0.06918035	0.119065955	0.1261376	0.02431034	0.114467785	-0.185402	0.27877897	-0.0630777	0.04543473	-0.033645004	-0.18548787	0.06825203	0.12760442	0.24617092	-0.044392798	0.08135517
0.08618914	0.21040744	0.2687553	0.100100145	0.2335634	-0.32077882	0.25010175	-0.19544737	-0.06566906	0.07316569	-0.25591326	0.1739346	0.30207622	0.23225844	-0.22249027	0.22306831
0.36578983	-0.076459855	0.4640707	0.40838158	-0.3522136	0.061620556	0.3124484	0.13890618	-0.16267489	0.30895504	-0.23516162	0.30046088	-0.16084501	0.511277	-0.51254076	-0.4026443
0.12761454	0.03204598	0.22812672	0.063788675	0.07053377	-0.22603187	0.33261153	-0.13847539	-0.075381316	0.036346897	-0.2413904	0.2054396	0.20875785	0.35580888	-0.31624168	0.115595184
0.06441995	0.025497783	0.06908987	0.035619553	-0.010028139	-0.037166726	0.00932802	-0.058138806	-0.011685195	-0.070711456	-0.08599101	0.14063379	-0.04568942	0.04032045	-0.07978581	-0.00028957534
0.13464803	0.18203697	0.30583835	0.13066871	0.22190948	-0.27775496	0.43877208	-0.17490907	-0.1593465	0.05547825	-0.27344975	0.08445823	0.24772511	0.3243282	-0.20221137	0.1206468
0.11770875	0.07040075	0.16446789	0.048603445	0.09766278	-0.14806412	0.27411216	-0.091375604	-0.083446376	0.014847788	-0.25179932	0.115572125	0.19285901	0.29720014	-0.13441448	0.13084227
0.1483854	0.18523014	0.2731242	0.14737336	0.18375881	-0.2777872	0.37277067	-0.23829965	-0.10046337	0.090630494	-0.31498724	0.26243624	0.2614141	0.39419806	-0.27140567	0.14085224
0.24427287	0.09941497	0.37505594	0.19391237	0.25646028	-0.44075468	0.5499813	-0.2744274	-0.23791888	0.006528094	-0.39133456	0.28603306	0.34776464	0.5851832	-0.39927277	0.20272094
-0.03985177	0.01760146	-0.032197036	-0.046472665	-0.004156653	-0.072791964	-0.041669507	-0.02554206	0.007914274	-2.0462649e-05	0.0007083414	-0.033077925	-0.015124198	0.042125657	-0.038957898	0.030780902
0.025399266	-0.039078895	0.02910149	-0.026524724	0.00095317175	0.060442515	0.004395749	0.006908558	-0.030658865	0.045011126	0.05888366	0.03666912	-0.083314635	0.038186084	0.020880744	0.0006898603
0.013877921	0.018747844	0.12610675	-0.002702844	0.06364019	-0.1823433	0.25138408	-0.0764222	-0.07149701	-0.05717364	-0.2019468	0.13190846	0.069552876	0.27686986	-0.05084068	0.12551114
-0.18444791	0.013216141	-0.09882441	-0.168499	-0.035359137	0.062316936	-0.087800935	0.080933526	0.14346986	-0.08414147	0.101215765	-0.024034059	-0.11396959	-0.0559251	0.17478244	0.03866306
0.112394296	0.05526142	0.14938849	0.0788812	0.074080326	-0.120007925	0.09814111	-0.14626712	-0.073305115	0.024284652	-0.08951308	0.10507778	0.1281766	0.12119759	-0.100857094	0.062032662
0.070344165	0.09857863	0.30811903	-0.015615426	0.06180347	-0.1843615	0.367266	-0.14486735	-0.17681254	-0.039624307	-0.29521185	0.3705908	0.14698423	0.42173854	-0.13882726	0.07918506
0.296741	0.14071867	0.3745318	0.13705385	0.36717534	-0.35203835	0.4584311	-0.23428972	-0.18170707	0.042065077	-0.2866442	0.22929296	0.35368815	0.44893166	-0.31961098	0.19377486
0.23644696	-0.10679761	0.47405005	0.29135245	-0.25451574	0.04884761	0.31700936	0.103667274	-0.10809936	0.19687968	-0.14467695	0.25911328	-0.105341405	0.49261013	-0.36863625	-0.23629008
0.10339587	0.20800257	0.35834464	0.21944647	0.2885805	-0.31685868	0.40873545	-0.0009691867	-0.14875047	0.22960967	-0.21594314	0.024060804	0.45241287	0.39035115	-0.21887435	0.04481615
0.2245826	0.33677706	0.40395895	0.35125244	0.112881504	-0.42139757	0.5090541	-0.2275748	-0.13300405	0.35279807	-0.53621274	0.31525844	0.39069664	0.48202989	-0.43020073	0.10226059
-0.114649445	0.08746621	0.0647192	-0.05969404	0.01893591	8.3538645e-05	0.1368886	-0.0624553	0.0332424	-0.059211776	-0.09905416	0.07017428	0.023099279	0.17338638	0.027686376	0.008741172
0.19266318	0.04276431	0.2998958	0.18831216	0.14349638	-0.2742993	0.4031854	-0.15914382	-0.26112083	0.15524237	-0.1909349	0.12040175	0.18158504	0.38428265	-0.18602665	0.18468387
0.21125461	0.114306435	0.30959767	0.204193	0.10046203	-0.22010142	0.3949874	-0.23198633	-0.25383806	0.13471206	-0.39206624	0.28423652	0.12849598	0.46916783	-0.24906448	0.060937107
0.23908061	0.03748074	0.3447326	0.104065016	-0.124384664	0.02665504	0.27095678	-0.029415678	-0.14032385	0.15476719	-0.15778537	0.29985118	-0.017345695	0.32761934	-0.26095626	-0.15689409
0.043328144	0.097908095	0.1710358	0.13839893	0.13424286	-0.14860544	0.1924169	-0.010000467	-0.056572407	0.124540865	-0.17941111	0.035246886	0.12645574	0.17738114	-0.14155659	0.032450255
0.10216395	0.10675951	0.20963523	0.2278539	0.027200062	-0.2793108	0.30645448	-0.08646724	-0.107929304	0.14826958	-0.31537324	0.15871918	0.1489049	0.34315875	-0.38288406	-0.06525616
-0.000842971	0.064197734	0.24537507	0.094626464	-0.018251048	-0.07244223	0.28425348	0.0008622787	-0.06825379	0.037167314	-0.1411992	0.09146437	0.045712624	0.2920033	-0.09457558	0.00963465
0.116877005	0.2138255	0.3032249	0.16059338	0.20529266	-0.28667858	0.3232433	-0.22029473	-0.124619514	0.15735514	-0.29704705	0.15616412	0.27767506	0.2878241	-0.18912147	0.19241187
0.05006963	0.05269613	0.1527285	0.063751236	0.01712881	-0.14212023	0.14982808	-0.08640659	-0.08779454	0.059523597	-0.09895081	0.03981088	0.024787478	0.11932021	-0.09547614	0.05205126
0.14357321	0.0635898	0.12277749	0.04419536	0.04964578	-0.017740825	0.16403177	-0.08444493	-0.09439516	0.12851647	0.004562733	0.042725634	0.06943728	0.19324204	-0.038073312	0.08170509
-0.05666286	0.0855428	0.024710465	0.0408761	-0.026782373	-0.046882775	0.05184068	0.049600918	0.066474676	0.0065464843	0.018043216	0.061539218	0.019992974	0.027802305	0.012183558	-0.0132189905
0.0015376832	0.06283691	0.30837598	0.046085097	-0.0083040865	-0.13570312	0.22522381	-0.02707312	0.055513877	0.04562818	-0.0917494	0.09928905	0.05550123	0.2134856	-0.14656417	0.02077038
0.23588501	0.15480965	0.28729847	0.2553983	0.23216817	-0.4556461	0.44597	-0.31400457	-0.16588676	0.09408554	-0.3781647	0.3369488	0.29071602	0.50711465	-0.31328	0.19904332
0.0837104	0.073622525	0.13783717	0.06507739	0.112728186	-0.09080182	0.06795383	-0.15577814	-0.07724809	0.014823107	-0.1142408	0.13995741	0.11746896	0.06672178	-0.01768893	0.1365604
0.1918177	0.21369934	0.3013218	0.18900914	0.24440795	-0.34961286	0.37464604	-0.20258981	-0.14262685	0.12387635	-0.2746806	0.19265291	0.2693453	0.35101244	-0.2552337	0.25788474
0.14017476	0.22735444	0.33701488	0.16969262	0.15304214	-0.2838167	0.33247608	-0.121591344	-0.13262728	0.17035577	-0.27371302	0.20794876	0.1827331	0.28459528	-0.2712736	0.11174044
0.014925128	0.0064669773	0.19397129	-0.006188261	0.08103547	-0.12596191	0.17271216	-0.017951367	0.010698473	0.041399296	0.026897082	-0.0044234954	0.06633113	0.10507786	0.0173963	0.102207206
0.11725363	0.0050498284	0.24525943	0.15296431	-0.04307561	-0.135982	0.23454082	-0.02117395	0.015634425	0.046342097	-0.12684035	0.14866969	0.019808644	0.37545732	-0.21359046	-0.1488269
0.06664604	0.04703808	0.02109823	0.06485569	0.07572039	-0.053524993	0.06365573	-0.061157838	-0.08987389	0.046697374	-0.03740183	0.0338802	0.12453845	0.10597423	-0.063965924	0.030212693
0.15800244	0.1208091	0.2638964	0.15912654	0.06629081	-0.1609818	0.32809252	-0.1080052	-0.12965722	0.08454581	-0.27850568	0.23328026	0.15688665	0.31925607	-0.2339821	0.028813675
0.15839899	0.082312874	0.31877804	0.17891221	-0.010481404	-0.12003964	0.2521944	-0.13781437	-0.16298386	0.135113	-0.21032074	0.30071414	0.07459807	0.32724765	-0.273227	-0.061071392
0.16773033	0.10726671	0.21025182	0.0628524	0.13290276	-0.20235814	0.30193922	-0.2164616	-0.1540304	0.0395953	-0.19249645	0.13227071	0.17750505	0.26818115	-0.2241394	0.041615214
0.063855685	0.14393672	0.27923974	0.08979612	0.12183764	-0.23423329	0.25598297	-0.11895864	-0.086265326	0.07420806	-0.14151202	0.15443097	0.14623311	0.23009783	-0.09276621	0.10256337
0.18139598	-0.041054998	0.12662067	0.06232177	0.018702403	-0.088225834	0.1047286	-0.08091313	-0.094266206	0.059531197	-0.10586175	0.14383289	0.076677255	0.16159193	-0.06064092	0.023934439
0.009588227	0.04390109	0.15840867	0.05518864	0.1302423	-0.20809779	0.18424343	-0.09240604	-0.010358611	-0.02283973	-0.19195157	0.06533259	0.16526379	0.14748913	-0.12682061	0.04633105
0.12193231	0.0661164	0.15731448	0.028042957	0.13270289	-0.18052197	0.16103506	-0.19178762	-0.124678746	0.009509049	-0.1683495	0.16578726	0.17608216	0.124598525	-0.045420747	0.17710961
0.06980766	0.04724158	0.06203261	0.07761302	0.11002907	-0.053550195	0.09840894	-0.018404443	-0.052493088	0.052557517	-0.0189898	0.06774168	0.07182783	0.14491843	-0.029753182	0.1405268
-0.0117228655	0.28026915	0.27837816	0.14663392	0.1764984	-0.34396747	0.40012437	-0.09551911	-0.05726648	0.22911713	-0.39853188	0.14065838	0.32393098	0.2452097	-0.20119411	0.15560795
0.0589917	-0.055328473	0.0980014	-0.02718869	-0.047286298	-0.014139891	0.017325342	0.024742898	-0.039527923	-0.029411739	0.06288887	0.05730641	-0.026320623	0.022152923	0.009442375	-0.04998397
0.26356965	-0.016667178	0.38939208	0.28456986	-0.27822593	0.051180366	0.1831125	0.11288031	-0.059419874	0.2891591	-0.124894425	0.31819606	-0.16124219	0.34871772	-0.44392464	-0.2685468
0.004401824	-0.005430171	0.051526465	-0.060466267	-0.08270878	0.053963464	-0.0400255	0.07052197	0.06975195	0.035922218	0.07457395	0.007999267	-0.07680711	0.013337414	0.012591346	-0.093293674
-0.03693401	0.011527025	0.050074868	-0.07638245	-0.046938013	-0.0049204184	0.015586836	0.0057020653	0.10218991	-0.01513584	0.002328778	0.021399656	-0.0055840267	0.019536708	0.041383754	-0.06214015
0.10622093	0.017582873	0.08720079	0.10195875	0.019421527	-0.08702016	0.063281514	-0.09685309	-0.07851084	0.09920395	-0.052320383	0.09947007	-0.0012686017	0.12284849	-0.091291085	0.013436836
0.05259747	0.07991536	0.19058189	0.026256299	0.03237945	-0.10139557	0.17748043	-0.04108668	-0.03620758	0.057390742	-0.100124076	0.002015126	0.11976104	0.13313186	-0.13033977	-0.034334697
0.14812899	0.13620716	0.28688475	0.12956952	0.052941397	-0.22127432	0.29629275	-0.18573384	-0.10019943	0.09661697	-0.23596969	0.17154351	0.15654722	0.27538234	-0.20677996	0.017498994
-0.028608799	0.05221031	0.12080286	0.0084711285	0.08502297	-0.11593515	0.19213016	-0.07199419	-0.052157413	-0.04458503	-0.11095713	0.10672823	0.08613991	0.23224656	-0.010572314	0.053478144
0.13549285	0.0122052515	0.29552975	0.08741741	-0.095010534	0.059124302	0.18603909	0.05318679	-0.015758326	0.15312618	-0.08819121	0.26132968	-0.08453865	0.28763014	-0.17527154	-0.16820975
0.031246938	0.12531394	0.4476158	0.08244595	0.078610085	-0.29501137	0.4608448	-0.012998335	-0.056535356	0.11559338	-0.16230613	0.046156634	0.1648844	0.37451664	-0.16871062	0.00857979
0.09252379	0.1430103	0.19082001	0.05580819	0.2560441	-0.28194895	0.24116418	-0.2824483	-0.18248126	0.005857627	-0.32690936	0.24815264	0.3052784	0.22897641	-0.19768499	0.24639443
0.010857654	0.021256415	0.11391691	0.04862805	-0.09676771	0.031095287	0.09541611	0.035270102	0.032740317	-0.020281633	-0.032293107	0.06759136	-0.059117626	0.063310556	-0.14897075	-0.08958442
-0.04167939	0.31374356	0.09839079	0.20981126	0.10104885	-0.25854415	0.25483876	-0.06404102	0.0055161626	0.21082383	-0.33160755	0.106088914	0.28354433	0.057292663	-0.2639028	0.11487727
0.10549122	0.056249637	0.1625871	0.063001156	-0.024265146	-0.10516196	0.15700942	-0.052844353	-0.07228364	0.048621826	-0.20559758	0.12454959	0.11541109	0.3213754	-0.0406156	0.07657261
0.16452654	0.19604032	0.19707161	0.21591815	0.088858	-0.1582289	0.27375868	-0.13084462	-0.19799738	0.11947246	-0.2699411	0.21406169	0.15186316	0.2736303	-0.25042894	0.06340969
0.16210686	0.038176958	0.29615465	0.16870995	0.08429751	-0.2110764	0.21745394	-0.06624075	-0.13826066	0.19569573	-0.10416527	0.12069052	0.17641288	0.23211119	-0.15561019	-0.008847956
-0.008798867	0.12647313	0.43167073	0.127109	0.19738592	-0.23551603	0.47283107	-0.12459406	-0.05924723	0.0925763	-0.31149897	-0.019616459	0.18544832	0.1176467	-0.23771472	0.13065778
0.05679239	0.04414938	0.11036021	0.006271252	0.06851165	-0.09631718	0.055632975	-0.19545817	-0.073533684	-0.06590464	-0.13851102	0.08159641	0.15023297	0.0767993	-0.061246898	0.14194266
0.16917282	0.19479509	0.31008455	0.18978204	0.1201195	-0.31756175	0.35339186	-0.29388657	-0.14796041	0.113767125	-0.33690268	0.29934585	0.281233	0.3848176	-0.27767283	0.11529736
0.14005573	0.0803998	0.15262344	0.107032105	-0.020758385	-0.17379871	0.27241132	-0.13359444	-0.045104798	0.058897495	-0.26866043	0.21677774	0.1401096	0.3698842	-0.27989164	0.03268712
0.042506922	0.04784567	0.13413456	0.06256146	0.007743733	-0.11587957	0.14941715	-0.076879464	0.016760299	0.08210058	-0.07928017	0.06396563	0.11740455	0.14609423	-0.08942668	-0.004016979
-0.09722675	-0.020243447	-0.03813321	-0.07237214	0.068495184	0.043939833	-0.04827322	-0.024711182	0.054068625	0.019352	0.063890085	0.04258722	0.050227094	-0.06339692	0.046068203	0.18182145
0.10143704	-0.035213206	0.26804346	0.17506176	-0.1084852	0.035173874	0.16238497	0.056699518	-0.14736386	0.121270694	-0.047367956	0.107724614	-0.11903248	0.37636364	-0.2948591	-0.1642379
-0.09123869	0.04139779	-0.054596286	-0.021277571	-0.02406493	0.060016163	-0.049433667	0.017275445	0.12499097	-0.081146106	0.0716676	0.019629631	-0.09029819	-0.07651634	0.061467808	-0.0073273648
0.07750521	0.03893205	0.23540674	0.12617432	0.15807967	-0.16713916	0.26015815	-0.15011291	-0.056006253	0.0736014	-0.16087091	0.16259377	0.1344058	0.19049188	-0.1244846	0.031585936
0.15451503	0.22441843	0.2806462	0.18480054	0.25346425	-0.3404256	0.33822253	-0.26469153	-0.13118115	0.16830607	-0.3270413	0.12938273	0.23217103	0.2259894	-0.20302264	0.32347438
0.06747169	0.106927946	0.26925135	0.1728605	0.1346929	-0.287102	0.3410461	-0.109551884	-0.08761113	0.10803958	-0.26240525	0.1879322	0.18749999	0.3551649	-0.17770924	0.11427995
0.120209225	0.08156611	0.2135419	0.07899751	0.26299793	-0.17846785	0.20655833	-0.14271471	-0.075479686	0.039890606	-0.22782068	0.105005994	0.21437784	0.3195304	-0.18873021	0.12144313
0.23054482	0.0052164127	0.3915234	0.10068102	0.10142579	-0.18108942	0.361629	-0.2684367	-0.24163784	0.05002498	-0.21523292	0.17498647	0.13846321	0.32020006	-0.20206809	0.11935805
-0.08193715	0.07435831	-0.011174252	-0.022201292	0.0725084	-0.021213666	-0.02938553	0.013930621	0.10836921	-0.011969838	0.010192687	-0.026089694	-0.002472895	-0.032942	0.08962308	0.03140229
-0.07965616	-0.02839652	-0.0680308	-0.06130109	-0.05793961	0.087864995	-0.004427277	0.07736963	0.0442818	0.016064737	0.082970046	-0.008675944	0.0018790934	-0.0022671677	0.051120732	-0.008071408
0.1742749	0.0077815177	0.16057251	0.05789418	0.01451949	-0.117430955	0.14364366	-0.10885052	-0.06633055	0.04761267	-0.21758717	0.07942181	0.07516427	0.34981048	-0.11055977	0.053590573
0.16959126	0.078007154	0.22431152	0.054098863	0.10496423	-0.16658309	0.2819786	-0.11810679	-0.13854228	0.06762528	-0.26947683	0.14087583	0.3696758	0.42256072	-0.031763855	0.20904745
0.04577606	0.15698059	0.21280575	0.05757692	0.06582004	-0.10479981	0.29000407	-0.1481308	-0.008839952	-0.005567448	-0.23497862	0.19974558	0.13558146	0.3161517	-0.1394609	0.034681775
0.033061665	0.017105468	0.13944964	0.09998178	0.063870266	-0.14840469	0.26376644	-0.10029019	-0.0071911262	0.012287594	-0.17818156	0.13296232	0.08472319	0.34630215	-0.04386762	0.070288055
-0.060666908	-0.03140246	-0.06430236	-0.122367054	-0.030341903	0.06598072	-0.07598527	0.058379043	0.08609082	-0.054576762	0.07408155	-0.040080804	-0.11125445	-0.072217725	0.05880211	-0.0029082473
0.036182016	0.030292394	0.26348314	0.139473	-0.043277066	0.008105421	0.21110539	-0.042205606	0.03191596	0.10725897	-0.09809628	0.12981522	-0.025350345	0.39436233	-0.15869401	-0.020078076
0.15115753	0.14785057	0.29101074	0.18000951	0.16576272	-0.20579717	0.33486664	-0.22690734	-0.24597552	0.121215776	-0.22740026	0.21477646	0.14222051	0.34485862	-0.2452384	0.100817695
0.059397332	0.1184618	0.08096725	0.03543717	0.094323486	-0.1424916	0.08053471	-0.12221018	-0.055137206	-0.010712476	-0.14898612	0.047966916	0.17989193	0.15593918	-0.10289078	0.047436345
0.09233224	-0.004216844	0.08372272	0.022275692	0.0575294	-0.058698233	0.022545593	-0.0344493	-0.08476088	0.039911535	0.000819847	0.075977705	0.03768658	0.11086528	0.05089127	0.06914435
0.03939449	0.13040516	0.18861362	0.09415377	0.10670712	-0.16121036	0.1926234	-0.094611734	-0.049059384	0.13299924	-0.2729474	0.19180444	0.104977556	0.2574703	-0.19354263	0.05111556
0.09027553	0.05947224	0.22201897	0.14212319	0.08961264	-0.17736073	0.18209463	-0.062518016	-0.052847154	0.07908031	-0.07254013	0.11502682	0.10818673	0.26671234	-0.06964975	-0.010335007
0.17902341	0.06882735	0.123155594	0.15880558	0.05565701	-0.114247166	0.17746341	-0.15356079	-0.06255603	0.1163755	-0.19431211	0.11046836	0.18179746	0.18911295	-0.17503785	0.036280744
0.13924275	0.066326775	0.27874815	0.12153133	0.121579275	-0.303285	0.2505232	-0.05520876	-0.07495365	0.07254273	-0.17128749	0.041133013	0.24235857	0.416507	-0.12083875	0.043816824
-0.007048824	0.025391743	-0.0077502527	-0.0581493	0.0033283883	-0.014096742	-0.05704184	0.07354972	0.01581352	-0.021215502	0.089407	-0.05841042	-0.047569484	-0.025695346	0.051739834	0.05182129
-0.060833257	0.05182267	0.048983697	0.0034627514	-0.02776485	-0.040241998	0.003596229	-0.01678087	0.061684977	0.034034915	0.06284687	0.0049182186	-0.037853576	0.060232516	0.048648246	0.024571255
0.15754719	0.12835002	0.28848925	0.19315074	0.22310463	-0.29972383	0.31680417	-0.24160843	-0.19922148	0.10782759	-0.255056	0.224791	0.22476156	0.28919896	-0.24318032	0.17694043
-0.19032729	0.010511091	-0.07648613	-0.12642726	0.008894873	-0.00090691337	-0.0009932098	0.029137095	0.15771614	-0.07966771	0.08051389	0.0069244937	-0.058847953	-0.07873244	0.115189165	0.15298066
0.22164132	0.06696833	0.37837824	0.06398586	0.20196825	-0.20356804	0.3630273	-0.18579836	-0.20800267	0.042042237	-0.22581169	0.18337874	0.32316574	0.400442	-0.17643367	0.14595908
0.06443124	0.020021014	0.07710804	0.005935353	0.09702331	-0.11513508	0.08461861	-0.08355135	-0.060589246	0.045971625	-0.06308965	0.018453611	0.13127734	0.071159616	-0.103743024	0.058388572
-0.08305884	-0.031789806	-0.09881659	-0.09978087	-0.0333529	0.032852802	-0.04824405	0.04386914	0.102779634	-0.046246003	0.07359784	-0.058873277	-0.10526943	-0.08356315	0.08229672	-0.042265803
0.12540777	-0.035721406	0.10394474	0.043848664	0.047934987	-0.05058142	0.105575815	-0.013255032	-0.105019785	0.009838302	-0.03443478	0.06402958	0.03856222	0.18550919	-0.035568032	0.034013577
0.035382837	-0.051080737	0.08965146	0.01687741	0.032390103	-0.056040425	0.06998897	0.008704176	-0.08938907	-0.016194267	0.0033963127	0.049982112	-0.020402571	0.141667	-0.053530943	-0.005670544
0.05147706	0.25609595	0.3803606	0.078882694	0.2815207	-0.31110814	0.37987822	-0.0612663	-0.11279171	0.19791365	-0.1097448	0.024909997	0.27064008	0.38695866	-0.0622546	0.08767892
0.24838562	0.18680517	0.3563882	0.27631503	0.1451672	-0.34730774	0.3755001	-0.19698833	-0.1919758	0.18930554	-0.3447986	0.28880754	0.27297863	0.352512	-0.35498485	0.021546947
0.15623857	0.17207998	0.3004745	0.19686674	-0.059767187	-0.15124966	0.25646606	-0.037804555	-0.1511237	0.21649216	-0.2158012	0.21070816	0.12292979	0.27028444	-0.27205056	-0.0127537185
0.19411941	0.21310434	0.44560945	0.29636893	0.16212669	-0.4122417	0.49866053	-0.2450184	-0.14684004	0.17447457	-0.3896669	0.22699519	0.32233325	0.5305325	-0.2789717	0.06394684
0.18208084	0.11195389	0.2007547	0.10341642	0.08983322	-0.23921081	0.36504257	-0.17599812	-0.145753	0.1241434	-0.32246807	0.12120067	0.29116142	0.38076535	-0.13659403	0.15918174
0.23350325	0.087555066	0.44442728	0.13873261	0.23056173	-0.26375657	0.377634	-0.11015534	-0.27133346	0.09693429	-0.17792192	0.0928562	0.28390676	0.46328452	-0.22311091	0.09173647
0.009819073	0.05654232	0.15444022	0.024469063	0.03577544	-0.11477558	0.15230164	-0.07890305	0.027447488	0.08048845	-0.07411799	0.13147283	0.07623962	0.12997183	-0.062159	0.0072605237
0.008813385	-0.0572792	0.18252651	0.12656888	-0.16682874	0.06079111	0.15133485	0.03072419	0.08476572	0.06760751	-0.014317559	0.15370487	-0.12104408	0.31642073	-0.17367625	-0.13017626
-0.14032501	-0.021987645	-0.059507813	-0.12291596	0.05770461	-0.033599257	-0.04338137	-0.019501027	0.11882922	0.0079553295	0.0296249	-0.04635398	-0.004309889	-0.05640079	0.116634846	0.024065042
0.11008761	0.13028646	0.116690315	0.103185974	0.091969796	-0.13464871	0.13346395	-0.13159984	-0.096580125	0.056833122	-0.12838936	0.13363083	0.12950683	0.10709163	-0.15035264	0.11147451
0.09424829	0.038106173	0.1125961	-0.020971667	0.043010328	-0.09624242	0.1022603	-0.06883198	-0.021677695	0.02055189	-0.063761	0.059318785	0.12494623	0.10948667	-0.08651127	0.103124835
0.015035274	0.34321487	0.20886211	0.17899933	0.0930163	-0.37611938	0.29853445	-0.07016801	0.022177365	0.15776975	-0.3556886	0.07784885	0.37058264	0.1776735	-0.28048003	0.114831366
0.13322349	0.11327384	0.2296882	0.17695114	0.06956111	-0.16218962	0.1703577	-0.022062184	-0.0588903	0.07509998	-0.15488693	0.10093001	0.15476738	0.18914497	-0.103505574	0.017131405
0.10546561	0.08315869	0.25707605	0.10966877	-0.010331593	-0.124410495	0.19623683	-0.034487113	-0.16086535	0.089853816	-0.112431444	0.17766355	0.038275886	0.17806005	-0.15810329	-0.06442239
0.02330165	0.09808195	0.090143956	0.05165147	-0.014996571	-0.11024495	0.15630825	-0.019840838	-0.002111025	0.016871326	-0.19893472	0.039522417	0.028998503	0.2061065	-0.024834102	0.01323052
0.0829846	0.09028927	0.12624875	0.04943424	0.14992864	-0.13417488	0.16770379	-0.074042425	-0.08728615	0.056496065	-0.11804465	0.036212593	0.18735415	0.20878597	-0.045243543	0.07947162
0.041892108	0.05536818	0.06878875	0.079005964	-0.005066235	-0.018322159	0.047070254	0.009711367	-0.085056536	0.071944125	0.009873223	-0.023012323	0.012598083	0.012976681	-0.08640645	0.05381244
-0.048361078	0.17083788	0.046312068	-0.0075394604	0.069540076	-0.11506977	0.07001634	-0.08546476	0.101582475	0.08601255	-0.08800503	0.02544089	0.14255506	0.036909636	0.03120867	0.17699005
0.08054263	-0.013278328	0.14442536	0.03878293	0.051921908	-0.041534774	0.1737543	-0.040836364	-0.051618736	-0.058064338	-0.098633856	0.12062781	0.04312916	0.2878726	-0.097105145	-0.008428619
0.23724711	0.17031606	0.4909955	0.30705947	0.067548245	-0.21705964	0.40144143	-0.21845011	-0.17608555	0.16229661	-0.32210478	0.29599687	0.15071104	0.48245367	-0.35576087	0.05523721
0.049757097	0.15649365	0.2086587	0.0073090307	0.23062143	-0.26885197	0.3705169	-0.10829574	0.055263888	0.040289592	-0.14561276	0.0781625	0.33627784	0.3048634	-0.21701811	0.077241965
0.19735424	0.018696938	0.21248779	0.087993346	0.04271658	-0.17194161	0.28781742	-0.1373166	-0.11727528	0.05618072	-0.1756816	0.14971517	0.048966337	0.35080174	-0.27750862	-0.084566355
0.0869296	0.1239521	0.14179753	0.046652026	0.098729454	-0.13666005	0.293794	-0.100520805	-0.101279765	0.05740949	-0.19500728	0.06865914	0.19135332	0.41294414	-0.12424393	0.07870203
0.03864095	-0.025365176	0.0006668804	0.009563414	-0.048799496	0.0013137765	0.021834727	0.053624082	0.005634406	-0.035172306	0.044807535	0.00735589	-0.03539696	0.025421035	0.028370291	-0.0614979
0.097632505	0.052745134	0.093375795	0.010716204	0.14412154	-0.11123771	0.053933106	-0.14578839	-0.055323858	-0.015665015	-0.066729836	0.15389799	0.09181204	0.061096705	0.0010603546	0.17765102
0.051654667	0.008342299	0.19617878	0.031488746	0.007287323	-0.18824647	0.19623792	-0.045825575	-0.03707157	0.057680093	-0.049176592	0.010992784	0.042127196	0.21863881	-0.036689278	0.045951143
-0.040127892	-0.011928714	0.27927676	-0.044077676	0.11504863	-0.3407998	0.2987093	-0.0703953	0.021263171	-0.066109024	-0.2057759	0.11281659	0.109301165	0.2952397	0.021953687	0.17642412
0.13703737	0.15926608	0.20808421	0.17139989	0.193372	-0.14279266	0.27127773	-0.19696563	-0.016779713	0.12116087	-0.2266409	0.1323871	0.1874591	0.30197132	-0.21812874	0.088432066
0.045867544	0.06447098	0.104049936	0.035632644	0.007368692	-0.06516544	0.050946373	-0.022637635	0.06699675	0.035415348	-0.04948964	0.013325915	-0.04488383	0.08521078	-0.08105269	-0.010699735
0.062029414	0.14573595	0.17264913	0.08328855	0.078055896	-0.24332239	0.3180463	-0.16332671	0.00035035756	0.08209969	-0.41638508	0.08285184	0.31155932	0.31656945	-0.15857598	0.14553484
0.094905995	0.07784405	0.12731002	0.037474856	0.07171596	-0.044587664	0.040238153	-0.03891234	-0.102642626	0.037533715	-0.020324359	0.10988472	0.13270208	0.119457915	0.03645523	0.14219189
-0.008958159	0.051447462	0.04161548	-0.0938	0.024110701	-0.09494946	0.13093387	-0.031374123	0.097015545	-0.04933568	-0.02439228	0.06289451	-0.0045293933	0.06609914	0.033898074	0.11336916
-0.031435765	0.035053752	0.07327142	-0.034750182	0.08604965	-0.053811137	0.028649688	-0.16152872	0.07809926	-0.05111616	-0.07838477	0.14063974	-0.012754579	0.07441397	0.019073613	0.042152192
-0.07270049	0.039162733	-0.05386152	-0.08070513	0.18011436	-0.0011110898	0.013229967	-0.0976541	0.0943428	-0.010963656	-0.0028577503	0.01989334	0.026104249	0.0007535379	0.07375597	0.34608614
0.19387466	0.121673465	0.28210497	0.16572142	0.11173022	-0.31055275	0.32423937	-0.17614053	-0.23336361	0.10449765	-0.27325544	0.20832895	0.17771788	0.38360178	-0.16701894	0.11117157
0.045113523	-0.025012953	0.2648322	-0.048452925	0.22763531	-0.2076323	0.2727742	-0.12941545	-0.09000605	-0.07697758	-0.15968007	0.09544673	0.05865655	0.12587148	-0.10402329	0.15212347
-0.1035049	-0.0089001795	-0.064960316	-0.018856898	-0.013150745	0.041480064	-0.008149395	-0.024721595	0.06663936	0.0070452658	0.0010317363	0.009511432	-0.01566583	-0.031805076	0.044827435	0.11698679
-0.012172305	0.049171165	0.08188799	0.08879025	-0.018937709	-0.10840171	0.10999933	0.056202315	0.009334207	0.09295999	-0.1477157	0.09211718	0.052385025	0.18542854	-0.16298269	-0.037196744
0.1393115	-0.020613512	0.20404987	0.14014216	-0.12876931	-0.078461654	0.12768818	0.024886606	-0.030934783	0.11129858	-0.088652745	0.19415294	-0.0026314484	0.15303916	-0.12840769	-0.110316075
-0.16026108	-0.07473751	-0.16356689	-0.12559268	-0.04216228	0.12801823	-0.1033931	0.048085015	0.14456187	-0.090710044	0.10582118	0.022280192	-0.12712914	-0.12116779	0.11405913	0.048642617
0.07195769	0.12760748	0.2760524	0.117350265	0.22330415	-0.16048764	0.2353661	-0.20028268	-0.13432793	0.07875528	-0.13831252	0.07209764	0.23520833	0.28924382	-0.092689835	0.08568392
0.120626844	0.100383416	0.22224225	0.15321979	0.007655369	-0.14165868	0.20418759	-0.049506906	-0.004181003	0.12463783	-0.081242576	0.06898686	0.008864431	0.30248684	-0.19581224	-0.07885023
0.1055468	0.031750057	0.10347177	0.06326498	0.12343955	-0.17135951	0.2054166	-0.17072408	-0.09922351	-0.02411932	-0.20024303	0.18629722	0.15253404	0.21519652	-0.0721198	0.17073925
0.058752205	0.16671024	0.2351214	0.08258764	0.26408422	-0.2804624	0.39018527	-0.088586085	-0.060522463	0.05825254	-0.20840083	0.061209716	0.29297414	0.274783	-0.1570491	0.11231425
0.04962868	0.116656445	0.10562151	0.07272094	0.074795425	-0.12816082	0.10718305	-0.065557234	-0.03742469	0.014819475	-0.10122332	0.10732021	0.24120992	0.13857798	-0.050971508	0.12018725
0.26837465	0.14250197	0.35638502	0.24117297	0.24288012	-0.38765287	0.36209047	-0.30223083	-0.25458208	0.18026473	-0.34441552	0.28870204	0.29932618	0.39394683	-0.26782912	0.14966992
0.063783556	0.049235776	0.096168116	0.032675207	0.06677186	-0.18158233	0.18954696	-0.06335284	-0.09247294	0.057977937	-0.19140379	0.13353944	0.22328438	0.17202646	-0.13525109	0.10035422
0.10039392	0.09524526	0.22299232	0.18126976	0.0161546	-0.2040683	0.22946315	-0.07210762	-0.06692257	0.13953047	-0.27613986	0.08599276	0.07513723	0.2624342	-0.26158056	-0.055912685
0.094771035	0.10692641	0.14703095	0.14602895	-0.001203776	-0.079864025	0.13809554	0.057850555	-0.08330505	0.15515022	-0.045049887	0.15483104	0.044906095	0.18579239	-0.15613626	-0.039868847
0.037859038	0.049494736	-0.018517591	0.05762773	-0.03540531	-0.03484566	0.008728795	0.018003266	-0.03850135	-0.03856696	-0.016974347	-0.033445667	0.031709783	0.0479961	0.011960151	0.0073083034
0.15370777	0.070933394	0.18358259	0.14526777	0.007842772	-0.12414267	0.2085565	-0.041687477	-0.010860986	0.07826133	-0.17262587	0.08302452	0.09249943	0.3878276	-0.17917688	-0.03827576
0.023639623	0.16262788	0.209425	0.10302061	0.091417395	-0.20955612	0.38719523	-0.054360997	0.06102149	0.10824753	-0.18696868	0.12493853	0.21822092	0.21063423	-0.15999979	0.0636349
0.1166335	0.02960814	0.21496233	0.10704662	0.07116916	-0.17581446	0.15934171	-0.09093123	-0.15587541	0.047032863	-0.21180792	0.22350031	0.06847627	0.2596622	-0.1375472	0.011511949
0.09907275	-0.07067485	0.054622088	0.00422045	-0.025502931	0.0022875746	0.032344565	-0.06421451	0.040192526	-0.024127709	-0.0091577815	0.10256107	-0.0563065	0.12355187	-0.008968623	0.011872304
0.1688455	0.11910284	0.19064537	0.10457133	0.20314887	-0.2058309	0.17945349	-0.18139409	-0.15468475	0.1378342	-0.20429005	0.18086007	0.17711368	0.24607167	-0.09099961	0.1772626
0.10011818	0.24507776	0.16851015	0.12026705	0.15568559	-0.19680142	0.2295393	-0.086008884	-0.09360443	0.20522694	-0.19356444	0.14764485	0.23474851	0.09487301	-0.15659395	0.09041913
0.021289803	0.0013369815	0.05247531	0.017671034	0.023895226	0.01987274	0.029694617	-0.06493366	0.06664784	-0.055733256	-0.02783427	0.0907898	-0.008053895	0.0106329955	0.06347833	0.06528724
0.17924589	0.078134015	0.36253467	0.08615009	0.13831611	-0.16571334	0.34340444	-0.1662464	-0.15803829	0.058579456	-0.1676377	0.10332533	0.19641519	0.29538485	-0.12495284	0.11521415
0.08987374	0.04930848	0.1482957	0.0085856635	0.006043408	-0.18414898	0.29466876	-0.04667114	-0.014003629	0.074787594	-0.19741766	0.11000809	0.06394961	0.25724033	-0.11637933	0.077986054
0.0822111	0.10938637	0.42966738	0.16153522	0.14313607	-0.2744437	0.4367054	-0.17852598	-0.034665875	0.084950276	-0.2632554	0.11835739	0.18423611	0.35920763	-0.22356388	0.12275758
0.118086174	0.17340034	0.22246106	0.16956565	0.18383457	-0.31330055	0.27873915	-0.22444938	-0.13238126	0.11047697	-0.2103696	0.19981688	0.2870494	0.26747864	-0.20144829	0.16608123
0.012834197	0.009118816	0.17041527	0.13217454	-0.17759016	-0.01846157	0.12071831	0.11670972	0.0007777392	0.09221067	-0.046408426	0.09487185	-0.07195011	0.14482823	-0.11840084	-0.14912789
-0.14351204	0.00974673	-0.09229315	-0.1817343	0.09444675	0.025958009	-0.08109323	0.018405074	0.15201198	-0.095114514	0.08539898	0.03766422	-0.037980285	-0.12172839	0.14296687	0.21940477
-0.013228292	0.06913331	0.16085796	-0.016132897	0.088476874	-0.08806134	0.1913677	-0.061088912	-0.062048387	-0.01528103	-0.10210604	0.07328535	0.14118652	0.1345292	-0.012460594	0.06692118
0.14921287	0.080787994	0.23431328	0.21108313	-0.011322457	-0.2249257	0.28183454	-0.17156345	-0.1271006	0.10529104	-0.25911745	0.16288605	0.13907766	0.3017235	-0.2153851	-0.015013247
0.12918332	0.074783124	0.16250029	0.14929104	-0.059525475	-0.057996355	0.18947606	0.0049038585	-0.02972589	0.14067134	-0.07505527	0.09499799	0.020982318	0.217852	-0.10554056	-0.0011240378
0.026180757	-0.03104207	0.15657644	0.024738656	-0.0559721	-0.06051655	0.11273639	0.015336662	-0.0067700394	0.07612843	-0.03536251	0.09951527	0.039528225	0.11847435	-0.14875293	-0.055496916
0.013157612	0.012533257	0.044488747	0.019598737	0.064253844	-0.077085026	0.049698222	-0.09991747	-0.13090299	-0.09764572	-0.029648341	0.081087396	0.030786604	-0.0017426143	-0.042097576	0.11336689
-0.025813393	-0.036506478	0.065070495	0.021035908	-0.081089705	0.023341827	0.09060683	-0.01710434	0.06699755	-0.008067772	0.01360599	0.013465282	-0.08524917	0.04395517	-0.036342982	-0.101005405
0.10938388	0.16077316	0.12194869	0.16771115	0.12123139	-0.2538109	0.2672323	-0.16892804	-0.100276046	0.002408304	-0.2762142	0.2214969	0.17345187	0.25745168	-0.23393834	0.08539123
-0.0072671147	0.2260589	0.06591162	0.13616863	0.07983972	-0.13523325	0.24340372	-0.057490196	0.07198309	0.13658684	-0.22674108	0.028530465	0.16878155	0.19070916	-0.13862552	0.037920155
0.024104647	0.14378116	0.04450832	0.047616508	0.11206647	-0.15847705	0.1312685	-0.055885974	0.02666464	0.023403388	-0.15751931	0.04832879	0.17117494	0.09551101	-0.13981222	0.102884755
0.092111126	0.1522444	0.32841116	0.07777077	0.113503225	-0.20201138	0.34163406	-0.116906345	-0.030283242	0.09520227	-0.27043313	0.13928923	0.18685454	0.31902498	-0.15294532	0.07900444
0.03974689	0.10040923	0.21712355	0.02801673	-0.007008308	-0.18422905	0.23256302	0.017996766	0.015994348	0.044484627	-0.20672107	0.089797825	0.15766355	0.16295643	-0.15899175	-0.07826337
0.05338664	0.016495477	0.13037075	0.13214038	0.087647066	-0.08444189	0.06950351	-0.09692607	-0.066372685	0.009679456	-0.05403348	0.078293666	0.10762451	0.0943915	-0.053272624	0.055576906
0.005201993	0.010210082	0.06300202	-0.106645286	0.0016534906	0.004569311	0.11669582	-0.066694334	0.03060985	-0.08641502	-0.018706296	0.01045088	-0.032508697	0.09067903	0.011282494	0.07065041
0.13323413	-0.027505187	0.28998795	0.093949154	-0.09098681	0.015598226	0.14369136	0.018686865	-0.08033453	0.14410451	-0.08095564	0.30068964	-0.04023677	0.3082752	-0.2303946	-0.11565283
0.019164898	0.12835906	0.3103491	0.10364632	-0.02280613	-0.20290466	0.34498528	-0.0014318356	-0.060407884	0.119821504	-0.10540467	0.008600918	0.05197816	0.20135064	-0.11592492	0.010259258
0.017753448	0.03447344	0.30084273	0.09292051	0.042498875	-0.08532908	0.30391207	-0.038094375	-0.10547653	0.034924086	-0.13891731	0.06727519	0.010327732	0.17780702	-0.07798036	0.038201287
0.05497043	0.11521381	0.25366634	0.13270722	0.19142275	-0.25438115	0.33364853	-0.20152412	-0.0445273	0.12152974	-0.3178327	0.11668879	0.19918771	0.3801825	-0.21727157	0.0648086
-0.0457895	0.103810675	-0.01853595	-0.0052339374	0.03804646	-0.084674336	0.122512594	-0.017670166	0.07891154	0.10124967	-0.16731833	-0.0009980979	0.23576233	0.19049656	-0.09206329	0.081605956
-0.10970602	0.06385093	0.0011313215	-0.10241971	0.080306575	-0.097286604	0.029547116	-0.021050913	0.081388265	0.0022616626	-0.053154908	-0.0030279923	0.061821345	0.0636097	0.02043457	0.21298914
0.037228428	-0.019219067	0.1717704	0.08435393	-0.06995244	-0.038177382	0.098449364	-0.023714572	-0.063888066	0.06211845	-0.076460496	0.16451102	-0.000107554	0.23073705	-0.09402953	-0.0633293
0.058364633	-0.008740273	0.06040044	0.008465205	-0.025891295	0.029428791	-0.058975328	-0.040713806	-0.056681048	-0.008138617	-0.028569423	0.1162875	-0.042641975	0.065505356	-0.05401218	-0.07730791
0.024301602	-0.08279604	-0.013243317	-0.06278945	-0.045638513	0.05185938	0.011315172	0.035365216	0.049134433	-0.07340556	0.01549128	0.010797568	-0.081376165	0.016762322	-0.00851762	-0.09106541
0.018810425	-0.005545853	-0.020567454	-0.009947618	-0.071764395	0.021823019	-0.03370873	-0.026562953	0.06034563	-0.008338408	-0.026364481	0.031114524	0.014278153	0.0048898705	-0.016610421	-0.02975393
0.11799578	0.1502734	0.17722711	0.10670725	0.09057589	-0.177937	0.23342559	-0.1882164	-0.06606092	0.16156948	-0.1836925	0.18691061	0.18288131	0.23390004	-0.16456465	0.044087797
-0.058785073	0.24698283	0.23520489	0.13894755	0.18940328	-0.32556492	0.33713537	-0.0811387	0.09278689	0.19672894	-0.325033	0.043740686	0.23025575	0.06338608	-0.16852753	0.17527816
0.05948579	0.11153853	0.25769082	0.034190163	0.22831151	-0.16283424	0.23920959	-0.15564409	-0.106484085	0.121411346	-0.10497792	0.14406851	0.24616805	0.20106599	-0.054394804	0.10388044
0.17223814	0.15071394	0.1556225	0.16497855	0.124926716	-0.19680619	0.2489281	-0.1971028	-0.18932505	0.15820156	-0.1841263	0.17024449	0.16484603	0.26786438	-0.14832671	0.013286348
0.31510252	0.22740343	0.34843367	0.22146797	0.3704056	-0.4875373	0.45269927	-0.37085232	-0.32763296	0.14059813	-0.4727861	0.44042903	0.4141669	0.513101	-0.35395658	0.2763881
0.026677025	0.029439464	0.08124212	0.03298503	0.020060955	-0.0715491	0.13338132	-0.07636078	-0.05523079	0.03233117	-0.1608145	0.13905148	0.13877067	0.20133837	-0.087643586	-0.023826746
0.14018226	0.13607322	0.24768046	0.11473493	0.19202003	-0.3305245	0.3025881	-0.18343446	-0.10370712	0.024278894	-0.24615195	0.19076629	0.18757375	0.28251836	-0.23707034	0.23700245
0.007535514	0.11575579	0.25887	0.15988283	0.061932955	-0.17561774	0.32559615	-0.03796927	-0.019148432	0.19401187	-0.16656692	0.11564518	0.07825128	0.22167882	-0.16528969	0.02564629
-0.023257773	0.046752106	0.008412601	-0.012175704	0.06282237	-0.00010879144	0.021019371	-0.012941921	-0.059565324	0.054656245	0.017129194	0.044998594	0.06806047	0.08085949	0.0111628575	0.011385379
0.19771177	0.23466742	0.43923	0.22324164	0.10069341	-0.32224008	0.51014084	-0.12961423	-0.13709852	0.19902772	-0.40215698	0.25488898	0.17705742	0.40883416	-0.33739656	0.060901154
0.09626834	0.055356853	0.16088296	0.09818786	0.074799165	-0.16595635	0.16132523	-0.09727551	-0.08048181	0.11926244	-0.13430265	0.07656264	0.07664271	0.10054068	-0.13307919	0.045676067
0.04188223	0.020575583	0.1626197	0.059854314	0.012643244	-0.24372818	0.17105275	-0.0025745684	-0.022616496	0.049268674	-0.08924976	0.100933634	0.09150278	0.24371131	-0.031775046	0.009769434
-0.035960857	0.0046778726	0.17873633	0.03091071	0.08417352	-0.2271766	0.12393913	-0.035030924	0.053806502	-0.0017589817	-0.062886216	0.03897408	0.07654481	0.10775509	0.008100321	0.12196214
0.10212861	0.014125971	0.10830332	0.025338225	0.04068498	-0.123344935	0.15806085	-0.10535082	-0.05303405	-0.03529464	-0.2321802	0.14541948	0.1600595	0.19531947	-0.17169206	0.10897963
0.046997964	0.06087737	0.32855853	0.012694792	0.0923346	-0.14306286	0.33014366	-0.096069835	-0.0804105	0.058749735	-0.16497399	0.012101134	0.105631396	0.15099795	-0.14708838	0.0539879
0.017210286	0.087640785	0.0045500193	0.042988826	0.05203599	-0.1091355	0.07700443	-0.0053237495	0.046170563	0.080820814	-0.1553838	0.015015064	0.08045439	0.06295145	-0.04197012	0.075846665
0.13042559	0.0132304495	0.19555105	0.13845678	0.031684943	-0.07943308	0.1658099	-0.01386504	-0.035480253	0.071840644	-0.06805967	0.11720972	-0.00059967476	0.16755259	-0.15956771	0.017620409
0.15612896	-0.05444163	0.16899307	0.0876779	-0.0066271704	-0.116145246	0.14488484	-0.06786419	-0.13700557	-0.009528901	-0.13770245	0.19718146	0.06393155	0.20504205	-0.18737039	-0.04000001
0.116434105	0.029601976	0.09436047	0.069355026	0.06081944	-0.11673513	0.09824191	-0.11502499	-0.11155442	0.022765819	-0.13586216	0.117176294	0.12112633	0.115358524	-0.08163922	0.13507147
0.15527	0.035404447	0.19470453	0.057946373	0.06445449	-0.056110688	0.21327467	-0.09134803	-0.15416664	-0.020382738	-0.041457098	0.15779434	0.12556338	0.24251652	-0.04867011	0.046081204
0.035093583	0.04528836	0.2520228	0.033597812	0.034436822	-0.11871537	0.3159127	-0.068364225	-0.007738265	0.05890073	-0.14733256	0.075128816	0.04523803	0.37241504	-0.099255405	0.042220745
0.058828384	-0.04031538	0.29043087	0.060974807	-0.043366067	-0.08966704	0.23459584	-0.015774056	-0.07314822	0.09368133	-0.12131273	0.12925148	0.025369627	0.31823704	-0.10228276	-0.021339031
0.1482215	0.027657952	0.32419962	0.20564127	0.15640736	-0.36041614	0.30568257	-0.0888851	-0.04345613	0.008744967	-0.27895194	0.23909795	0.16748607	0.3518457	-0.2130941	0.093049034
0.10777884	0.08011086	0.4415762	0.08782865	0.21553072	-0.1885935	0.48413652	-0.038279288	-0.111481264	0.031002391	-0.07512801	0.06432256	0.21095034	0.325314	-0.11248206	0.08201241
0.095770724	0.0010110893	0.07093562	-0.013735754	0.1024273	-0.044723712	0.03440647	-0.079132065	-0.04249876	-0.031849608	-0.11997082	0.09364128	0.004173023	0.08387416	-0.02799565	0.109314114
0.03223326	0.027742572	0.15069097	0.033540368	0.061387062	-0.05322631	0.13839115	0.022195762	-0.020080851	0.09637677	-0.05016574	0.07452746	0.05125597	0.052846592	-0.17278554	0.03228897
0.06273583	0.042873856	0.2141178	0.023920152	-0.025908437	-0.10839114	0.27605817	-0.055063583	-0.07661625	0.0018162979	-0.18000878	0.065860875	0.04773196	0.22105964	-0.19396377	-0.02944956
0.04811627	0.12783918	0.12529114	0.06843774	0.18677512	-0.13328509	0.16650158	-0.15200977	-0.09635363	0.021613356	-0.15960288	0.10722447	0.08796712	0.16951612	-0.04151208	0.16729766
0.00929984	0.15466204	0.1526571	0.041980717	0.15598233	-0.14771697	0.24089296	-0.10705205	-0.031597134	-0.023223208	-0.17235184	0.09541448	0.13555053	0.19510917	-0.04558273	0.103731744
0.109825514	0.057172067	0.1171531	0.1768044	-0.018525084	-0.13662314	0.13920435	-0.112566195	-0.0907341	0.04463687	-0.15310572	0.15752077	0.11447735	0.1499071	-0.1785102	-0.054603968
-0.012562562	0.04906628	0.10082121	0.017858	0.07930285	-0.12792805	0.20212339	-0.04561667	-0.006327541	0.008706618	-0.05145984	0.09132798	0.06436791	0.123494826	-0.09874873	0.015970398
0.17566642	0.045838933	0.25335947	0.09232568	0.21981826	-0.16980807	0.2161799	-0.18220054	-0.114552714	0.092989914	-0.17468265	0.17048052	0.24579862	0.24888639	-0.13324936	0.107442155
0.08086892	0.06324899	0.3114827	0.15057163	0.05767959	-0.26555708	0.35852686	-0.12797612	-0.052425504	0.15085769	-0.29140154	0.15908648	0.16557172	0.33593222	-0.21683358	0.062455423
0.28230408	0.19076575	0.24144918	0.21914242	0.18013074	-0.36292028	0.26654172	-0.3305606	-0.29939976	0.053040802	-0.29195598	0.3269753	0.2271795	0.33188313	-0.26894882	0.12838015
0.22921558	0.10114378	0.3355628	0.15727995	0.3339926	-0.29788038	0.3342796	-0.3166356	-0.08279108	0.023102054	-0.3308142	0.24074729	0.26600266	0.49663997	-0.34644687	0.14631835
0.15111464	0.10244565	0.29017952	0.10968147	0.19911012	-0.25203496	0.3177418	-0.20560612	-0.13164574	0.04319051	-0.22636479	0.2648282	0.24322112	0.34317008	-0.1729148	0.12004043
0.104594946	0.051719632	0.17100787	0.08183498	0.12987435	-0.1849357	0.17537637	-0.18243557	-0.10212928	-0.007987467	-0.18885484	0.12105356	0.15305698	0.22136167	-0.15090737	0.13130471
0.15206908	0.1441412	0.18198289	0.1112925	0.17701654	-0.1770078	0.20089047	-0.21143839	-0.0936364	0.0945209	-0.19062707	0.19455303	0.19091257	0.26395708	-0.14859293	0.117367186
0.13803338	-0.030451663	0.25513598	0.16869485	-0.11091937	-0.019551478	0.16845268	-0.011904474	-0.014475304	0.1579305	-0.032027945	0.216937	-0.06887815	0.2989026	-0.19778278	-0.15859915
-0.072021484	-0.03914973	0.045326825	-0.02040931	0.027952213	-0.067987606	0.05227139	0.011052294	0.02077515	-0.06209713	-0.04381329	0.04225852	0.032344166	0.00906703	0.0674741	0.058382805
0.1432358	-0.023565093	0.22229871	0.104651615	0.04195025	-0.20701948	0.18395942	-0.10894438	-0.06409221	0.054776106	-0.12685457	0.16712336	0.11400092	0.26682904	-0.19074422	-0.008700288
0.15914516	0.080655344	0.27309036	0.10410536	0.15221126	-0.21032622	0.27675515	-0.11732296	-0.05543644	0.06420671	-0.24663775	0.21052583	0.07841724	0.26819858	-0.16054264	0.069177456
0.006634309	0.060986284	0.17534171	0.047202613	0.0690639	-0.07245426	0.19080004	-0.06971012	-0.10503002	0.0991158	-0.10318464	0.11716869	0.08408857	0.21828383	-0.11044306	0.084106065
0.0075494	-0.024121072	0.10664435	-0.019809349	0.09962572	-0.1848862	0.35175437	-0.16463996	-0.050912015	-0.12185166	-0.27265936	0.20774947	0.11383204	0.36421004	-0.106446326	0.095191434
0.07343719	0.11441525	0.10184087	0.13782878	-0.033618756	0.028335525	0.18817253	-0.017410353	-0.04260977	0.067501545	-0.025717314	0.13221492	0.07267198	0.2540738	-0.14099866	-0.006014812
0.08229673	0.11964856	0.17556974	0.09362359	0.22944845	-0.24780038	0.18782027	-0.16169824	-0.076199695	0.066640206	-0.25414643	0.13318606	0.2503196	0.25134388	-0.1514632	0.1218545
-0.0036118147	0.056550454	0.27437395	0.00994542	-0.014269791	-0.07876317	0.1454668	0.0074454076	0.012196082	0.06115391	-0.008320342	0.027005993	0.0154829305	0.21475482	-0.023244014	0.0072080493
0.04363844	0.10792086	0.26117077	0.15602343	-0.08152429	-0.23110051	0.26060513	-0.0028388477	-0.029446507	0.100566566	-0.2162547	0.1504568	0.15416682	0.2830119	-0.28711042	-0.14273608
0.11792809	0.31409535	0.34387138	0.29282483	0.28936484	-0.37757167	0.47733447	-0.1830919	-0.0746884	0.26241654	-0.43869343	0.10405678	0.39155594	0.21375366	-0.32901487	0.29122362
0.007827779	0.02882128	-0.03097204	-0.066213325	-0.015303342	-0.041683037	-0.034713037	0.050632473	0.0111771	0.0060030324	0.0035633813	-0.052587066	0.027544107	-0.0007074198	-0.009600512	-0.014229888
0.026028773	0.036613714	0.14234065	0.033585593	0.009641526	-0.10357652	0.1676236	0.045998376	0.009247244	0.13432355	-0.103259176	0.0012251375	0.07294615	0.3052226	-0.044421863	0.0019728667
-0.10256968	0.07296701	-0.004966349	-0.09065202	0.044884	0.022960424	0.042397544	-0.01046554	0.13971983	0.020974169	0.056260884	-0.023761723	-0.031197151	0.0016917145	0.07026307	0.029085554
0.3172679	0.26059845	0.45053726	0.34290868	0.34802097	-0.42301992	0.41898966	-0.296018	-0.35387516	0.30123058	-0.44172287	0.29207283	0.44087178	0.43538523	-0.35566482	0.28592345
0.16526975	0.16652773	0.34522876	0.17276582	0.22441326	-0.3075074	0.31736133	-0.2560945	-0.17701559	0.09661636	-0.37336558	0.29986587	0.26159635	0.3638615	-0.3423062	0.20702755
0.027308825	0.11555456	0.16333514	0.025218792	0.10488521	-0.14627959	0.15871026	-0.14712454	-0.030842744	0.038891222	-0.12477607	0.1359298	0.16819096	0.14134829	-0.06522785	0.088423185
0.13905154	0.18890539	0.17912641	0.20747685	0.15348391	-0.21977416	0.15195362	-0.12635532	-0.17793229	0.12734824	-0.18818004	0.15546277	0.20141648	0.19973855	-0.20397148	0.05818668
0.1140989	0.043146208	0.13234559	0.063396856	0.14532271	-0.10855247	0.08564113	-0.116979666	-0.08373907	0.013686991	-0.1005578	0.17746581	0.12401223	0.10654349	-0.07194599	0.10754328
0.013069336	0.07803696	0.10247163	0.0015436461	-0.06360323	-0.0010436483	0.09175858	0.023115765	-0.03953904	0.11372756	-0.11375349	0.18029909	0.034419198	0.18655618	-0.051922828	-0.03910234
0.034805555	0.080047876	0.14394343	0.10878269	0.07435359	-0.17997353	0.06752517	-0.053090017	-0.052887026	0.04635831	-0.08678932	0.11159043	0.13505057	0.11777241	-0.07212393	0.13758005
-0.0918398	-0.022489619	-0.04950036	-0.13356665	-0.026305005	0.013438159	-0.063402295	0.08754461	0.12218767	-0.049904454	0.099072695	9.96387e-05	-0.022960076	-0.124810815	0.068142004	-0.034080792
0.0989154	0.035424724	0.119085	0.05976632	0.13876863	-0.051951732	0.097204864	-0.123138286	-0.058451477	-0.011617224	-0.12388009	0.051391955	0.1473466	0.11957623	-0.067490466	0.09122401
0.055963207	0.05797332	0.097252555	0.05210607	0.040494468	-0.10816035	0.11336503	-0.023669997	-0.04803256	0.07312619	-0.08482222	0.036897827	0.046586294	0.17725147	-0.027037283	-0.037829954
-0.01812567	0.18881734	0.19661419	0.023878863	0.23519519	-0.17153506	0.2637847	-0.028145725	0.08905468	0.02678127	-0.21785948	0.0140713975	0.13449156	0.16748329	-0.05216378	0.21480015
0.097095415	0.07834633	0.16926819	0.0986407	0.18523595	-0.16557853	0.2685221	-0.1495133	-0.07231577	0.015894828	-0.2806415	0.17955336	0.19488025	0.32962713	-0.18183488	0.16319522
0.023360837	-0.0028802631	0.088760465	-0.019763123	0.0056257374	-0.047272168	0.13571064	-0.018743968	0.03180838	-0.03253461	-0.0028634062	0.07081851	0.032350466	0.16197419	-0.05902713	-0.044733252
0.033963345	-0.007652267	0.1612732	0.10244381	-0.13657108	0.028362092	0.12837219	0.069652885	-0.034934696	0.16122927	-0.0448421	0.073777825	-0.102444775	0.10569948	-0.15671596	-0.07356786
0.05488878	0.029421708	0.2563212	0.17092614	0.07644942	-0.17834415	0.1272542	-0.04760165	-0.029579416	0.047186445	-0.14279425	0.16118746	0.090402596	0.24369724	-0.18106455	0.036000453
0.05806436	0.04046456	0.337994	-0.018406974	0.033594668	0.009482693	0.19900632	-0.00032300118	-0.059957102	0.064324625	-0.094993606	-0.015287134	-0.013850684	0.063340195	-0.0677424	-0.0053467597
0.16447757	0.038768094	0.22153205	0.07110165	0.14270647	-0.08848219	0.20521532	-0.15617199	-0.16221945	0.0033120015	-0.05340206	0.13559262	0.1795335	0.223171	-0.06333065	0.19640432
0.0943275	-0.051901616	0.3666009	0.016764967	-0.1482471	0.06862791	0.16335596	0.035037827	0.05149935	0.037114654	-0.013327558	0.10149165	-0.03443909	0.14965221	-0.16889471	-0.35556003
-0.0043513994	0.086936384	0.20266743	0.042989463	0.05627797	-0.28297248	0.17340596	-0.034877162	0.017466994	0.021469431	-0.14132829	0.0417329	0.06135852	0.21087	0.0043625543	0.09031315
0.1414787	0.1484664	0.20056303	0.12343348	0.1218763	-0.17097755	0.19581218	-0.0967975	-0.036693834	0.055576667	-0.1964336	0.15386406	0.113449916	0.18493235	-0.16799763	0.07190289
0.15751457	0.21579924	0.31317785	0.1647759	0.21909647	-0.37350768	0.4086786	-0.17028081	-0.14194791	0.14461286	-0.28635496	0.21959794	0.29263633	0.38672984	-0.28050983	0.13107601
0.1036201	0.1576271	0.17897844	0.100113004	0.13493805	-0.18815692	0.21229376	-0.13736129	-0.15225725	0.18029797	-0.21642177	0.15049693	0.17532943	0.2621729	-0.15980062	0.11271818
0.03598956	-0.018560117	-0.01046643	-0.018632427	-0.05933215	-0.022726005	-0.019211682	-0.00807072	-0.013369061	0.0005039879	0.02728434	0.008805314	-0.029519668	-0.010987432	-0.019636363	-0.13748632
0.009587114	0.0087613445	0.10840475	-0.020199824	0.0114669595	-0.08792292	0.08468313	0.03001446	0.040652912	0.060909808	-0.036561422	-0.022787973	0.035702635	0.03405144	0.03935143	0.0010008488
0.19976638	0.08253626	0.41854984	0.17542888	-0.05663219	-0.09264327	0.4184105	-0.124414034	-0.12679711	0.115273446	-0.16703129	0.16447286	0.05596103	0.39297464	-0.2848423	-0.041435942
0.16908118	0.23339334	0.33214137	0.19772781	0.16928996	-0.25689718	0.34173846	-0.14931098	-0.1687547	0.15150136	-0.15016045	0.1522573	0.25292334	0.33960474	-0.17329615	0.123340264
0.14244148	0.13201092	0.2552275	0.1719311	-0.014559771	-0.14446977	0.2627378	-0.05596728	-0.0036510096	0.10224014	-0.20357147	0.1319108	0.015618384	0.18922643	-0.24919346	-0.15601373
0.16601767	0.15483727	0.2386299	0.09695867	0.1635022	-0.21292108	0.27951875	-0.16190843	-0.21868926	0.120455615	-0.2909394	0.054119598	0.15506484	0.25767612	-0.12323039	0.14517142
0.08838976	0.15136129	0.21585634	0.090957634	0.19432713	-0.21862383	0.18258673	-0.12576541	-0.14547326	0.09924276	-0.16580483	0.06137261	0.22391106	0.21964125	-0.005240107	0.08112716
0.09777154	-0.07430974	0.44298044	0.18542056	-0.25523442	0.013461891	0.4640685	0.09719345	0.00740749	0.13588877	-0.1586407	0.20778413	-0.0997616	0.5648725	-0.3478325	-0.21808337
-0.030527778	0.008817677	0.014371525	-0.020333469	0.078531004	-0.10249112	0.0152101265	-0.04142562	0.0048203506	-0.011611007	-0.07220328	0.0033292333	0.09196388	0.0444951	0.034091048	0.12278458
0.070366725	0.056535244	0.19588827	0.12234044	0.16647983	-0.1683558	0.12984675	-0.1185908	0.016056063	0.11006856	-0.13216537	0.076037094	0.19779696	0.13309744	-0.06158145	0.03002146
0.047444697	0.0394061	0.092415206	0.034089968	0.08685363	-0.09193514	0.08701304	0.02837528	-0.02889319	-0.0056597036	-0.03831357	-0.0006092255	0.051731892	0.111596264	-0.018963832	0.0073735784
0.07752758	0.14768143	0.29729903	0.16106407	0.18855762	-0.21636681	0.25112343	-0.16812101	-0.11078831	0.124781355	-0.23637162	0.097342335	0.25460127	0.26485938	-0.17796905	0.08099353
0.13133214	0.05525355	0.35047346	0.1390925	0.15146574	-0.263951	0.33300227	-0.24255562	-0.0016570704	0.01186711	-0.24154235	0.17260881	0.24522094	0.3806194	-0.28271344	0.032476977
-0.030357748	0.029336458	0.1252295	-0.063094944	0.022523738	-0.05152227	0.16877693	-0.077776715	0.04787165	-0.12752466	-0.008332901	0.0027816934	-0.03209456	0.080757245	0.02998139	0.112817205
0.017034816	0.056186438	0.283759	0.17288503	0.06601066	-0.31781742	0.24461132	-0.022951955	0.011818724	0.08621503	-0.18672732	0.13726635	0.13670228	0.2852847	-0.20778623	-0.017299533
0.043131746	0.025656288	0.07042335	0.027759084	0.12180967	-0.18284652	0.10195499	-0.048735987	-0.087609775	-0.0111568095	-0.16526575	0.18193755	0.06907279	0.14741999	-0.13802531	0.066196
0.007961868	0.17257588	0.26590455	0.110106215	0.17945622	-0.44627184	0.40599403	-0.14296263	-0.070036	0.04657055	-0.38373974	0.21745475	0.2624265	0.3252828	-0.26207644	0.15946461
-0.09074893	-0.015154352	0.015442289	-0.04580843	-0.059917916	0.023073103	-0.014555519	0.00088422874	0.09090722	0.03314183	0.020698346	-0.064481385	-0.06590072	-0.05773378	0.069126815	0.03221061
0.13568562	0.064704575	0.27537727	0.087426	0.113994166	-0.19268289	0.28976688	-0.1545919	-0.1429169	0.08510052	-0.24119227	0.31292468	0.13967608	0.28447607	-0.2031553	0.08044303
0.028670335	0.0668389	0.08392086	-0.059621442	0.01993149	-0.1231571	0.09107694	-0.029544048	0.020637644	0.067506604	-0.039443508	0.049162153	0.025788656	0.09974799	-0.057732567	-0.02419601
-0.02636154	-0.015353922	0.06187028	0.019278962	-0.070158	0.032666344	0.031402342	0.011360975	0.0026527494	-0.01818263	0.06685251	0.053897984	-0.078594536	-0.016774165	0.015415191	-0.030646408
0.096514806	0.12069899	0.29222387	0.14365473	0.03741352	-0.15272692	0.2686436	-0.087586336	-0.12254576	0.1735911	-0.20547411	0.2814437	0.08568354	0.35669467	-0.24766615	0.0052678986
0.12158301	0.046087883	0.39444277	0.08984401	0.32231706	-0.3699624	0.44118416	-0.2712249	-0.14208065	0.06506826	-0.25739443	0.17485408	0.27078417	0.44232395	-0.20212764	0.18095322
0.1613533	0.070593834	0.2167149	0.1694386	0.12491302	-0.19799046	0.2503782	-0.20019981	-0.016316643	0.06733943	-0.25888464	0.227264	0.12981771	0.2228208	-0.17282644	0.045138113
0.12985575	-0.029204892	0.21933241	0.12878881	-0.046886224	-0.011228373	0.19710341	0.07179576	-0.1301136	0.091998436	-0.057861596	0.17229551	1.2899727e-06	0.26617503	-0.07520112	-0.039226737
0.0682218	0.12496435	0.16562435	0.16204415	0.10142963	-0.16263883	0.18675497	-0.082296185	-0.021043748	0.028387768	-0.23696294	0.054377194	0.15523805	0.20446976	-0.14706367	0.10181302
-0.052498303	0.056550432	0.023296162	-0.013410972	0.05076667	-0.04047564	-0.018936638	-0.10278907	0.014743942	0.0026918913	0.006293981	0.009521645	0.092281215	-0.038735904	0.053414248	0.22783494
0.13269068	0.026318496	0.20978603	0.13325922	-0.046493527	-0.11709293	0.24597569	-0.052037694	-0.008636917	-0.0047119204	-0.098186255	0.15508379	0.034189347	0.32481092	-0.11137707	-0.05078182
0.10959846	0.07808175	0.13182463	0.13013676	0.08796935	-0.122539066	0.14036605	-0.122377776	-0.15755071	0.10648219	-0.17807406	0.11117814	0.14156744	0.14632604	-0.086349435	0.0015976101
-0.15176046	-0.012783064	-0.10876413	-0.19507724	-0.03691981	0.089089274	-0.12545155	0.023056678	0.1815853	-0.10964546	0.10938463	-0.034623954	-0.0938668	-0.16881518	0.19484748	0.12502027
0.04910866	-0.01961109	0.17514835	-0.05949932	0.020621298	0.013400709	0.08027547	-0.06033168	-0.032113872	-0.028037654	0.0009563666	0.058142778	-0.012558634	0.09379099	0.012146058	0.053432982
0.1337091	0.09205089	0.19626884	0.1252574	0.07952136	-0.15681513	0.25386763	-0.23721375	-0.0776857	0.086103134	-0.2267583	0.2113921	0.19216053	0.281077	-0.2037341	0.069330685
-0.03680619	0.11752415	0.012724324	0.0569314	0.0011725657	-0.10288595	0.1484665	-0.017062513	-0.0016861572	0.0041033267	-0.14782865	-0.0018720048	0.122206256	0.080373734	-0.029672135	0.03844758
0.10858483	0.091423556	0.14280759	0.10769983	0.052188125	-0.07431276	0.1303984	-0.02445635	-0.04426614	0.09902269	-0.12953259	0.07607601	0.10138822	0.2091056	-0.10681657	0.023128465
-0.018027706	0.14402814	0.19658211	0.06726552	0.09131213	-0.20644122	0.2234027	-0.09281082	-0.0073740077	0.0858342	-0.20729832	0.057451017	0.18532293	0.089604095	-0.16648476	0.07253092
-0.039552715	0.065593995	-0.0038830766	-0.07487427	0.028817827	-0.030191539	0.050478168	-0.06461276	0.0091476515	-0.043586142	-0.028606813	0.025662782	-0.008800786	0.03859337	-0.017974082	0.025676405
0.013362461	0.118914805	0.20503944	-0.0012808073	0.10364426	-0.1892091	0.30452162	-0.03900855	0.024740264	-0.016183719	-0.09820509	0.08714226	0.17844673	0.33166295	-0.24178185	0.0014914445
0.08662213	0.14422445	0.17414802	0.065112896	0.042344756	-0.09249988	0.1434898	-0.037008673	0.0040801084	0.10177356	-0.12392884	0.12437782	0.13316077	0.183929	-0.16733755	0.0136509035
0.16480026	0.12493496	0.27086812	0.10259109	0.25419676	-0.27859166	0.36759374	-0.23624206	-0.13457005	0.07216409	-0.2868158	0.19367857	0.22527076	0.29963392	-0.24780704	0.25127962
-0.0010418658	0.13993052	0.055457998	-0.00645225	0.09183163	-0.07069731	0.047138967	-0.13894926	-0.0353791	-0.0017220915	-0.048875023	0.13635245	0.021665325	0.08885528	-0.0042136125	0.14185685
0.14798668	0.11552883	0.26892	0.15677927	0.053891107	-0.14672083	0.22322147	-0.07229226	-0.15995274	0.08835209	-0.21192248	0.16084547	0.14317419	0.2628915	-0.20839843	0.0042328355
0.19540028	-0.04015487	0.23259392	0.15395595	-0.05250869	0.054671254	0.23718812	0.04925462	-0.020946296	0.14423539	-0.11721515	0.17154895	-0.1634434	0.38422018	-0.28102133	-0.10129428
0.1673179	0.19234917	0.26156867	0.1858815	0.21848097	-0.32720092	0.27854076	-0.28701892	-0.15381561	0.104374796	-0.26082027	0.20701838	0.22083649	0.30080265	-0.22441983	0.14135966
0.16149935	0.08043812	0.20090395	0.16427179	0.06576134	-0.182601	0.17448811	-0.093313545	-0.09604851	0.14602266	-0.20311263	0.117406465	0.17516893	0.2292533	-0.18656814	0.07993642
0.029662093	0.17494023	0.19190589	0.08147412	0.1343885	-0.1920406	0.23076665	-0.14055963	-0.07049103	0.08970226	-0.27651972	0.055088073	0.13665824	0.12173159	-0.15921386	0.11130932
0.049707606	0.15999661	0.11373321	0.11770201	0.061481796	-0.1065263	0.18935652	-0.116817385	-0.068257354	0.1362385	-0.11851052	0.1553415	0.16321912	0.20293745	-0.12096893	0.1228602
0.10394747	0.10892633	0.24651016	0.10799272	0.20427918	-0.33086982	0.2892334	-0.21353666	-0.12221795	0.09055435	-0.3158372	0.1507526	0.25570258	0.2511308	-0.14230746	0.2375499
-0.14472093	0.025363525	0.02640297	0.017607143	-0.0069519156	-0.019840332	0.112076454	0.05022637	0.14913009	0.07364804	-0.08018046	-0.023734072	0.042260498	0.008650994	0.0046193046	-0.062365323
0.17053148	0.15625346	0.23085748	0.18101947	0.24290936	-0.2331876	0.2558856	-0.23696247	-0.14002773	0.17458569	-0.23143022	0.13970962	0.21900254	0.19038022	-0.19393595	0.13763335
0.017794125	0.16062742	0.25219968	0.065501176	0.23789857	-0.3120496	0.28966713	-0.24227756	0.057129093	0.0058434354	-0.23185886	0.06388651	0.25655627	0.24796368	-0.17370461	0.20650193
0.059829857	0.0066053295	0.36894602	0.14860241	-0.18519445	0.004830605	0.30971688	0.09564554	-0.030508406	0.06794343	-0.04059974	0.07078195	-0.08975306	0.29542816	-0.19773564	-0.18008865
0.21342811	-0.05563719	0.46420234	0.16130535	-0.09262931	-0.12998393	0.36377528	-0.07064888	-0.09686199	0.07731209	-0.16950637	0.33885914	0.04716552	0.5379651	-0.27145204	-0.04888526
0.20436557	0.16721374	0.30188712	0.20097405	0.31440276	-0.29719272	0.42453653	-0.15661058	-0.24012204	0.17027137	-0.25963077	0.07048198	0.27660406	0.35139206	-0.18317962	0.2322193
-0.004821151	0.05388194	0.24442941	0.027418315	0.05406743	-0.18019518	0.27543512	-0.09059538	-0.057436395	0.04642182	-0.16026776	-0.0067104506	0.12664568	0.14456892	-0.20688209	-0.0010880376
0.07668818	0.06288779	0.17494637	0.14774308	0.069640554	-0.10086631	0.18109135	-0.027183918	-0.03433446	0.060542	-0.09322886	0.09370026	0.18454641	0.20125383	-0.14679833	0.02749056
0.06423894	0.041613083	0.025492677	-0.020372832	0.05466233	-0.027664099	0.04437442	-0.021950942	0.0005958445	-0.027577307	-0.019428572	-5.0828407e-05	0.055939056	0.04939185	0.042669132	0.13325326
0.041376326	0.11704261	0.08197646	0.03922371	0.0140428655	-0.06324534	0.1399828	-0.056981087	-0.034701046	0.021956228	-0.1733281	0.108769394	-0.009305225	0.16714446	-0.03471974	0.019349685
0.015501245	0.04814889	-0.04612682	-0.064490885	-0.019480428	-0.04384995	0.012342183	-0.011310141	0.053533036	-0.0035446638	-0.033735275	0.004718157	-0.03383979	0.04326894	0.02023326	0.11326124
0.088778175	-0.007103274	0.12608263	0.053417537	0.06601337	-0.07534041	0.038866077	-0.08451965	-0.017528804	0.013449615	0.0039363177	0.014784963	0.10120777	0.09235822	0.03362313	0.08650197
0.1263235	0.09046277	0.114174485	0.115250275	0.14970143	-0.24189551	0.20698385	-0.20871754	-0.056796923	0.08853203	-0.26837754	0.14912383	0.12904575	0.3224879	-0.18264937	0.100214384
0.058035124	0.13662969	0.21397087	0.17024323	-0.010058006	-0.23351386	0.23222381	-0.059973564	-0.052812524	0.16768599	-0.2055462	0.14230485	0.15549743	0.19072163	-0.22716041	0.0036848218
0.08433402	0.0021835885	0.047655623	0.0356563	-0.015747465	-0.062882796	0.03504046	-0.022788435	-0.076831944	0.0120483525	-0.0074790786	0.09503315	0.026424356	0.06615252	-0.032905243	0.017276183
0.08158349	0.06928092	0.07633484	0.06268601	0.02934714	-0.111397974	0.08099282	-0.07052007	-0.04314152	-0.038532432	-0.06792329	0.0027151778	0.041266013	0.10500936	-0.025552997	0.08517737
-0.113944344	0.103496484	0.00031897586	-0.07120428	0.08314775	-0.02175465	0.021061547	-0.05135083	0.048761275	-0.05065304	-0.03629525	-0.0013710465	0.087348364	-0.019366715	0.027964443	0.1026187
0.12592794	0.07811776	0.22873141	0.16283962	0.0949877	-0.26498178	0.2663288	-0.08210489	-0.099865146	0.062071748	-0.19117683	0.17431901	0.14727242	0.3000465	-0.19162712	0.063134596
-0.051797934	0.1938207	0.23042779	0.06485272	0.07176667	-0.2983763	0.42343855	0.09074704	0.015347378	0.14499374	-0.3146958	0.03792534	0.23915313	0.1736079	-0.11971984	0.20265236
0.108550996	-0.07792495	0.20751746	0.08947954	-0.15561917	0.09057169	-0.001897381	0.0957614	0.060235567	0.03363136	0.0768106	0.044125315	-0.10267691	0.11498893	-0.1085225	-0.14508724
0.034822203	0.06808009	0.083341315	0.09491316	0.082301416	-0.09011425	0.059695214	-0.07361634	-0.10545346	0.022007031	-0.07735069	0.028890101	0.10534003	0.076226175	-0.017688405	0.049710725
0.08929457	0.074467264	0.07760347	0.07303431	0.08173749	-0.08305946	0.13121967	-0.13070872	-0.10501417	0.02282523	-0.09444548	0.13650899	0.12274549	0.098209575	-0.06496669	0.040441588
0.12372818	0.19676055	0.17967083	0.120891914	0.09607377	-0.23571461	0.23573726	-0.18544142	-0.13329768	0.060628723	-0.18707946	0.16012277	0.18606327	0.16884908	-0.19085018	0.033742696
0.19143529	0.06980458	0.1728988	0.112550326	0.12653174	-0.21513966	0.28000948	-0.093241386	-0.18962583	0.054716732	-0.13823679	0.122452386	0.2510641	0.27405694	-0.17544708	0.08485255
-0.028923064	0.13016757	0.15391801	0.007521936	0.05993476	-0.17228784	0.24703102	0.0027004734	0.107008725	0.04525398	-0.06784783	-0.021230325	0.06085081	0.26489505	-0.08254906	-0.012382725
0.24709778	0.1069272	0.3584442	0.21315822	0.055304077	-0.21064715	0.31332156	-0.112241365	-0.11510361	0.216541	-0.20916168	0.12815881	0.17478836	0.40317106	-0.23133071	-0.006788611
0.14148323	0.17879885	0.25413764	0.16151339	0.115476616	-0.23807794	0.25384793	-0.19073786	-0.14258316	0.19130443	-0.17806302	0.23734254	0.2726846	0.27876288	-0.23574181	0.0396526
-0.103526846	-0.042776648	-0.074509725	-0.086373664	-0.03260631	0.02833801	-0.036964376	0.053308092	0.12940434	-0.10038705	0.0773279	-0.08860167	-0.016867755	-0.07627557	0.09805158	0.022726653
-0.014453729	0.122165225	0.044547915	-0.014425415	0.07451818	-0.08807223	0.076607056	-0.103045836	-0.015102107	0.0010361441	-0.05078089	0.073337756	0.14000964	0.1056055	-0.067155875	0.090348475
-0.04385039	-0.048154004	-0.035056148	-0.07008315	-0.0224232	-0.0044278344	-0.048991915	0.058793515	0.0585449	0.010597275	0.061915234	-0.065617576	-0.103128426	-0.0378746	0.046136845	-0.073384374
0.044646308	0.049651165	0.3357297	0.072216704	0.1736284	-0.26243943	0.3581754	-0.12444742	-0.021811571	0.039249633	-0.24310572	0.120284386	0.19433127	0.31869653	-0.1649729	0.08782228
0.035547417	0.04765671	0.014259079	0.028238628	0.07366575	-0.014523436	0.060948573	0.005113384	-0.06954818	-0.007620806	-0.07031519	0.00607898	0.090423875	0.010335459	-0.00135008	-0.0017820036
0.047768667	0.124120206	0.026091961	0.00663885	0.10574444	-0.03642574	0.06151352	0.03952716	-0.024342684	0.100349404	-0.017353816	0.06016732	0.07777872	0.009832724	-0.0022239476	0.06419756
0.1659538	0.1259851	0.34328523	0.11383103	0.2126624	-0.20942472	0.34988472	-0.21189749	-0.13234141	0.012017929	-0.29158798	0.13930391	0.18209395	0.22758041	-0.20185472	0.19317517
0.06122939	0.024711309	0.24073537	0.12154428	0.0421085	-0.100371525	0.22156231	-0.08875276	-0.10255574	0.08325474	-0.19196154	0.2260839	0.0051341276	0.32882187	-0.12799737	-0.059118766
0.084143706	0.06928834	0.25676724	0.20873946	0.011075184	-0.18077883	0.3417442	-0.018512515	-0.04899234	0.08762742	-0.24810675	0.20478305	0.057007395	0.3416281	-0.34125715	-0.12044929
0.046228465	0.19846669	0.32571685	0.15883288	0.13666205	-0.2942859	0.41196606	-0.07847224	-0.043021612	0.10667805	-0.25636375	0.093007684	0.19794267	0.2738237	-0.2572388	0.11704837
0.146067	-0.0066311867	0.41642335	0.17805123	-0.16658123	-0.051693957	0.36280203	0.02019326	-0.07304263	0.08127406	-0.17193446	0.23985647	-0.028169189	0.3780208	-0.2993226	-0.12609322
0.08295137	0.031683505	0.029448709	0.029471826	0.025649892	-0.08805137	0.05352077	-0.16238935	-0.0816207	-0.04550141	-0.08702701	0.08279786	0.082747795	0.033446748	-0.003246084	0.0756622
0.07023922	0.123851284	0.1806512	0.050470676	0.009993734	-0.08980445	0.22248438	-0.018458148	0.031542767	0.07163235	-0.08440863	0.029333197	0.050435007	0.19007307	-0.061515566	-0.030619869
0.04140165	0.16355571	0.35044777	0.052310567	0.20792715	-0.34107798	0.4798628	-0.122154586	-0.10204621	0.049929496	-0.20035183	0.15661602	0.37556282	0.42139924	-0.32766104	0.10804132
0.004937307	0.0019658061	0.023403792	0.0027320758	0.05754839	-0.06268838	0.0009688016	-0.010829788	-0.041409045	-0.04651158	-0.05549452	-0.005619735	0.08249885	0.005602671	0.02604648	0.10180298
-0.08418162	0.15841846	0.06825873	0.080762886	0.035033904	-0.12218227	0.06394667	-0.05663808	0.019288067	0.09089872	-0.09448084	-0.00076477655	0.06392648	0.023984183	-0.062427767	0.10147065
-0.0018989664	0.044402167	0.08806511	-0.04019558	0.010013504	-0.008928073	0.035870984	-0.0014874929	0.045376305	0.05284498	0.0041845394	-0.029984087	-0.00041548256	0.050183948	0.022852145	-0.0742627
0.19182684	-0.044582542	0.5098836	0.22471784	-0.14265704	0.025944004	0.49181917	0.08398149	0.006600619	0.24305211	-0.18022081	0.36875504	-0.12311053	0.6468164	-0.3254063	-0.2075426
0.22426713	0.12702787	0.4545963	0.122005	0.21297613	-0.32550532	0.5632988	-0.11997208	-0.20579867	0.16658823	-0.30881783	0.13198999	0.27081636	0.5299748	-0.1517211	0.110887386
0.21908149	0.096615426	0.17359233	0.11499143	0.19300334	-0.2170002	0.18699862	-0.21628405	-0.16637683	-0.03631683	-0.21266186	0.2892512	0.17507957	0.32586312	-0.23943493	0.15144187
0.088210255	-0.0029522872	0.05341284	0.038792204	0.019770714	0.035220772	-0.011137136	0.06425	-0.057310164	0.07683631	0.063742444	-0.046167437	0.023490474	0.06876843	0.036177702	-0.07507639
0.0065444405	0.0045022746	0.06871506	-0.044533156	0.14476222	-0.073728696	0.066359304	-0.09483369	0.09768922	-0.034164198	-0.043321718	0.002197451	0.04385334	0.08723286	-0.01671801	0.055593573
0.13431779	0.014608461	0.24575785	0.15216456	-0.083035275	-0.005156238	0.22347943	0.06355578	-0.13251436	0.13655317	-0.12613584	0.1957441	0.0043008	0.33532524	-0.23322311	-0.060203742
0.16460665	0.025480298	0.23537418	0.16051516	0.08656667	-0.09958792	0.31306192	-0.09384942	-0.09180907	0.12672733	-0.15902606	0.13696596	0.07428388	0.30058047	-0.18960325	-0.017834364
0.03566188	0.11542251	0.13926217	0.13291584	0.14401291	-0.20839284	0.2252294	-0.1525074	-0.090988226	0.067518815	-0.21844143	0.101302326	0.22818537	0.22059393	-0.17163657	0.14269698
0.024384836	0.075612314	0.112191476	-0.05880763	0.0860196	-0.110738724	0.29020843	-0.104813464	-0.029129123	-0.037858516	-0.12999523	0.015635442	0.10092671	0.2214113	-0.009467632	0.021513004
-0.008702613	0.11783014	0.15282618	0.071672134	0.061145265	-0.12980878	0.25365257	-0.041228943	0.010051772	0.095535	-0.13169341	0.08068601	0.10777925	0.06098071	-0.111461975	0.07674313
-0.12029189	0.04432255	-0.05299977	-0.045945127	-0.0028306472	-0.024656555	-0.04922729	-0.002937851	0.15433024	0.048510887	0.0040465016	0.0054239207	0.009274623	-0.065943085	0.051376082	0.076608405
0.058960836	0.04139257	0.0940428	-0.007805173	0.06804418	-0.09596779	0.02267736	-0.18987684	-0.0403091	0.032441203	-0.045370586	0.07237044	0.07056403	0.055348154	-0.0073601226	0.091893844
0.21352032	-0.035159573	0.15552431	0.13129085	0.21256305	-0.23281701	0.24764253	-0.13325484	-0.28353116	0.03717794	-0.14119717	0.10289331	0.13785474	0.38319194	-0.06263657	0.12433084
-0.01737808	0.019256065	0.017255625	0.040363807	-0.07790001	0.08376893	0.028607037	0.027430033	0.113550946	0.025757773	0.025313718	-0.007717112	-0.0646863	0.045151077	-0.08883953	-0.065686494
0.07132486	-0.057244364	0.14696032	0.03695153	-0.0249364	-0.037104484	0.1586405	-0.06417926	0.018078713	0.014120116	-0.09460674	0.11906302	0.04708849	0.12210862	-0.06791321	-0.0016098231
0.1452248	0.08524712	0.09360396	0.05343984	0.076081015	-0.13033076	0.21663389	-0.1224004	-0.10889596	0.08670671	-0.21361952	0.08599386	0.21431224	0.2448198	-0.102501735	0.17865773
-0.08713694	-0.00885392	0.033437148	0.0010362247	-0.038696848	-0.042931627	0.018976789	-0.048542567	0.063686535	-0.058335423	-0.026678879	0.0061631724	-0.03977687	0.02514856	0.0028387168	0.038818166
0.13162042	0.07510282	0.07343582	0.07665194	0.112946145	-0.094074674	0.15001783	-0.1757687	-0.08864406	0.036385972	-0.10716131	0.17244883	0.15128514	0.123475455	-0.08077164	0.1713427
0.05307404	0.042466167	0.12291075	0.026456267	0.07097439	-0.043943834	0.06292956	-0.09642322	-0.048605375	-0.046687715	0.021468574	0.041898187	-0.0021507787	0.11420062	-0.052993592	0.08387989
-0.025232151	-0.032271717	0.19207512	0.022073425	0.025695745	-0.09614255	0.13868375	-0.07752331	-0.05819675	-0.079925	-0.07929235	0.06835939	0.024120761	0.04301799	-0.08351838	-0.0019915497
0.17339885	-0.08440773	0.37110662	0.2583265	-0.20164414	0.09727704	0.21823996	0.1154871	-0.14486387	0.1236131	-0.03319534	0.32125014	-0.16966759	0.3963364	-0.2880616	-0.2071229
0.16532482	0.04726207	0.16543078	0.16342857	0.0165748	-0.12626886	0.15819426	-0.1199263	-0.10434594	0.12905264	-0.13509054	0.14550063	0.091851085	0.13326548	-0.10162822	0.043949828
0.042785745	0.22267716	0.16797952	0.12464097	0.18129496	-0.25483358	0.27231506	-0.16049527	-0.017408282	0.13050453	-0.23810314	0.057759892	0.21540253	0.09849067	-0.10440554	0.23675646
0.103700615	0.11426316	0.18852575	0.18025088	0.18773831	-0.18454117	0.23563278	-0.13837396	-0.10912475	0.09786754	-0.20281574	0.10839943	0.22041681	0.23186162	-0.15563408	0.14690301
0.008268	0.025104754	0.035929665	-0.042145528	0.14005616	-0.18257259	0.09126594	-0.08860795	-0.0770056	-0.011651641	-0.1402428	0.112295516	0.09248438	0.16589431	0.0006871936	0.061040726
0.057532236	0.083166026	0.012698205	0.07545874	0.08589407	-0.07546185	0.11032626	-0.06816958	-0.022712233	0.055126954	-0.061156318	-0.016049635	0.12682904	0.013030335	-0.0055503324	0.14482889
-0.09744667	-0.0382253	-0.13913521	-0.17387435	0.014613633	0.043912586	-0.14028437	-0.05191038	0.11164262	-0.12858054	0.10342731	0.010905761	-0.0829418	-0.07743797	0.10392806	0.21667197
0.06250726	0.041646026	0.06353295	-0.017191334	0.14084435	-0.10246866	0.13007723	-0.08813468	-0.04816726	0.012354577	-0.11934382	0.04338693	0.16052291	0.12956396	-0.050041903	0.07134875
0.004358275	0.08290034	0.16280058	0.017005712	0.015430548	-0.08325491	0.1730254	0.010906689	-0.083691925	0.12317955	-0.07660896	0.07768754	0.09185857	0.25729394	-0.09739726	0.05079178
0.035536904	0.0021770257	0.09967413	0.060470995	0.07911323	-0.0641355	0.07136367	-0.068447866	-0.0639134	0.08004387	-0.022944206	0.004457144	0.052426457	0.07820876	-0.0018999327	0.06353808
0.07626418	0.28119138	0.2833558	0.09985536	0.22423685	-0.34558108	0.3486753	-0.19655068	-0.11794872	0.14790754	-0.23688443	0.11038314	0.3404043	0.33020744	-0.2332859	0.14505593
0.06586864	0.11544822	0.22178103	0.09802163	0.24412623	-0.31259683	0.3518795	-0.22207326	-0.05325045	0.0034800433	-0.31365296	0.16320784	0.23683685	0.21505697	-0.18607445	0.21442814
